digraph Tree {
node [shape=box, style="filled, rounded", color="black", fontname=helvetica] ;
edge [fontname=helvetica] ;
0 [label="OverallQual <= 7.5\nmse = 6440485011.94\nsamples = 745\nvalue = 180562.98", fillcolor="#fae6d8"] ;
1 [label="OverallQual <= 6.5\nmse = 2273952268.65\nsamples = 623\nvalue = 155559.04", fillcolor="#fbebdf"] ;
0 -> 1 [labeldistance=2.5, labelangle=45, headlabel="True"] ;
2 [label="GrLivArea <= 1211.5\nmse = 1387768697.96\nsamples = 479\nvalue = 140126.26", fillcolor="#fbede3"] ;
1 -> 2 ;
3 [label="BsmtFinSF1 <= 294.0\nmse = 690075843.41\nsamples = 220\nvalue = 118851.55", fillcolor="#fcf1e9"] ;
2 -> 3 ;
4 [label="TotalBsmtSF <= 883.0\nmse = 509654528.39\nsamples = 88\nvalue = 101608.11", fillcolor="#fdf4ee"] ;
3 -> 4 ;
5 [label="OverallCond <= 6.5\nmse = 351262293.14\nsamples = 54\nvalue = 92670.05", fillcolor="#fdf6f0"] ;
4 -> 5 ;
6 [label="YearBuilt <= 1935.0\nmse = 293462308.37\nsamples = 37\nvalue = 84571.96", fillcolor="#fdf7f2"] ;
5 -> 6 ;
7 [label="ExterCond_c <= 1.5\nmse = 111072665.29\nsamples = 11\nvalue = 72277.27", fillcolor="#fef9f6"] ;
6 -> 7 ;
8 [label="BsmtFinSF1 <= 101.5\nmse = 3062500.0\nsamples = 2\nvalue = 56750.0", fillcolor="#fefcfa"] ;
7 -> 8 ;
9 [label="mse = 0.0\nsamples = 1\nvalue = 55000.0", fillcolor="#fefcfb"] ;
8 -> 9 ;
10 [label="mse = 0.0\nsamples = 1\nvalue = 58500.0", fillcolor="#fefcfa"] ;
8 -> 10 ;
11 [label="GrLivArea <= 1168.0\nmse = 69592006.17\nsamples = 9\nvalue = 75727.78", fillcolor="#fef9f5"] ;
7 -> 11 ;
12 [label="LotArea <= 8624.0\nmse = 27360622.84\nsamples = 8\nvalue = 74123.53", fillcolor="#fef9f5"] ;
11 -> 12 ;
13 [label="EnclosedPorch <= 59.5\nmse = 13962900.0\nsamples = 5\nvalue = 70810.0", fillcolor="#fef9f6"] ;
12 -> 13 ;
14 [label="YearBuilt <= 1925.5\nmse = 8926875.0\nsamples = 2\nvalue = 74725.0", fillcolor="#fef9f5"] ;
13 -> 14 ;
15 [label="mse = 0.0\nsamples = 1\nvalue = 73000.0", fillcolor="#fef9f6"] ;
14 -> 15 ;
16 [label="mse = 0.0\nsamples = 1\nvalue = 79900.0", fillcolor="#fef8f4"] ;
14 -> 16 ;
17 [label="TotalBsmtSF <= 781.0\nmse = 290000.0\nsamples = 3\nvalue = 68200.0", fillcolor="#fefaf7"] ;
13 -> 17 ;
18 [label="YearBuilt <= 1923.5\nmse = 2400.0\nsamples = 2\nvalue = 68440.0", fillcolor="#fefaf7"] ;
17 -> 18 ;
19 [label="mse = 0.0\nsamples = 1\nvalue = 68400.0", fillcolor="#fefaf7"] ;
18 -> 19 ;
20 [label="mse = 0.0\nsamples = 1\nvalue = 68500.0", fillcolor="#fefaf7"] ;
18 -> 20 ;
21 [label="mse = 0.0\nsamples = 1\nvalue = 67000.0", fillcolor="#fefaf7"] ;
17 -> 21 ;
22 [label="TotalBsmtSF <= 515.0\nmse = 8408163.27\nsamples = 3\nvalue = 78857.14", fillcolor="#fef8f4"] ;
12 -> 22 ;
23 [label="mse = 0.0\nsamples = 1\nvalue = 83000.0", fillcolor="#fdf7f3"] ;
22 -> 23 ;
24 [label="EnclosedPorch <= 109.5\nmse = 2160000.0\nsamples = 2\nvalue = 77200.0", fillcolor="#fef8f5"] ;
22 -> 24 ;
25 [label="mse = 0.0\nsamples = 1\nvalue = 76000.0", fillcolor="#fef9f5"] ;
24 -> 25 ;
26 [label="mse = 0.0\nsamples = 1\nvalue = 79000.0", fillcolor="#fef8f4"] ;
24 -> 26 ;
27 [label="mse = 0.0\nsamples = 1\nvalue = 103000.0", fillcolor="#fdf4ed"] ;
11 -> 27 ;
28 [label="LandSlope_c <= 0.5\nmse = 273823416.54\nsamples = 26\nvalue = 90452.02", fillcolor="#fdf6f1"] ;
6 -> 28 ;
29 [label="LotArea <= 6627.5\nmse = 196030676.65\nsamples = 24\nvalue = 92397.73", fillcolor="#fdf6f0"] ;
28 -> 29 ;
30 [label="BsmtUnfSF <= 814.5\nmse = 37678684.81\nsamples = 10\nvalue = 83247.62", fillcolor="#fdf7f3"] ;
29 -> 30 ;
31 [label="HeatingQC_c <= 1.5\nmse = 18662500.0\nsamples = 9\nvalue = 82250.0", fillcolor="#fdf7f3"] ;
30 -> 31 ;
32 [label="OpenPorchSF <= 12.0\nmse = 46875.0\nsamples = 2\nvalue = 75375.0", fillcolor="#fef9f5"] ;
31 -> 32 ;
33 [label="mse = 0.0\nsamples = 1\nvalue = 75000.0", fillcolor="#fef9f5"] ;
32 -> 33 ;
34 [label="mse = 0.0\nsamples = 1\nvalue = 75500.0", fillcolor="#fef9f5"] ;
32 -> 34 ;
35 [label="1stFlrSF <= 651.0\nmse = 8545898.44\nsamples = 7\nvalue = 83968.75", fillcolor="#fdf7f3"] ;
31 -> 35 ;
36 [label="BsmtQual_c <= 2.5\nmse = 2395061.73\nsamples = 4\nvalue = 86277.78", fillcolor="#fdf7f2"] ;
35 -> 36 ;
37 [label="BsmtFinType1_c <= 2.5\nmse = 40000.0\nsamples = 2\nvalue = 84900.0", fillcolor="#fdf7f2"] ;
36 -> 37 ;
38 [label="mse = 0.0\nsamples = 1\nvalue = 84500.0", fillcolor="#fdf7f2"] ;
37 -> 38 ;
39 [label="mse = 0.0\nsamples = 1\nvalue = 85000.0", fillcolor="#fdf7f2"] ;
37 -> 39 ;
40 [label="mse = 0.0\nsamples = 2\nvalue = 88000.0", fillcolor="#fdf6f2"] ;
36 -> 40 ;
41 [label="SaleCondition_c <= 2.5\nmse = 785714.29\nsamples = 3\nvalue = 81000.0", fillcolor="#fdf8f3"] ;
35 -> 41 ;
42 [label="mse = 0.0\nsamples = 1\nvalue = 82000.0", fillcolor="#fdf7f3"] ;
41 -> 42 ;
43 [label="GarageArea <= 110.0\nmse = 62500.0\nsamples = 2\nvalue = 80250.0", fillcolor="#fef8f4"] ;
41 -> 43 ;
44 [label="mse = 0.0\nsamples = 1\nvalue = 80500.0", fillcolor="#fef8f4"] ;
43 -> 44 ;
45 [label="mse = 0.0\nsamples = 1\nvalue = 80000.0", fillcolor="#fef8f4"] ;
43 -> 45 ;
46 [label="mse = 0.0\nsamples = 1\nvalue = 103200.0", fillcolor="#fdf4ed"] ;
30 -> 46 ;
47 [label="Id <= 373.5\nmse = 194372060.49\nsamples = 14\nvalue = 100752.17", fillcolor="#fdf4ee"] ;
29 -> 47 ;
48 [label="OverallQual <= 4.5\nmse = 40895061.73\nsamples = 5\nvalue = 89722.22", fillcolor="#fdf6f1"] ;
47 -> 48 ;
49 [label="GrLivArea <= 950.5\nmse = 6860000.0\nsamples = 3\nvalue = 84300.0", fillcolor="#fdf7f3"] ;
48 -> 49 ;
50 [label="MSSubClass <= 25.0\nmse = 55555.56\nsamples = 2\nvalue = 82166.67", fillcolor="#fdf7f3"] ;
49 -> 50 ;
51 [label="mse = 0.0\nsamples = 1\nvalue = 82000.0", fillcolor="#fdf7f3"] ;
50 -> 51 ;
52 [label="mse = 0.0\nsamples = 1\nvalue = 82500.0", fillcolor="#fdf7f3"] ;
50 -> 52 ;
53 [label="mse = 0.0\nsamples = 1\nvalue = 87500.0", fillcolor="#fdf7f2"] ;
49 -> 53 ;
54 [label="GarageYrBlt <= 1948.5\nmse = 750000.0\nsamples = 2\nvalue = 96500.0", fillcolor="#fdf5ef"] ;
48 -> 54 ;
55 [label="mse = 0.0\nsamples = 1\nvalue = 95000.0", fillcolor="#fdf5f0"] ;
54 -> 55 ;
56 [label="mse = 0.0\nsamples = 1\nvalue = 97000.0", fillcolor="#fdf5ef"] ;
54 -> 56 ;
57 [label="Foundation_c <= 2.0\nmse = 164548163.27\nsamples = 9\nvalue = 107842.86", fillcolor="#fdf3ec"] ;
47 -> 57 ;
58 [label="TotRmsAbvGrd <= 5.5\nmse = 93289256.2\nsamples = 7\nvalue = 112727.27", fillcolor="#fcf2eb"] ;
57 -> 58 ;
59 [label="GarageArea <= 120.0\nmse = 11135802.47\nsamples = 5\nvalue = 108444.44", fillcolor="#fcf3ec"] ;
58 -> 59 ;
60 [label="mse = 0.0\nsamples = 1\nvalue = 100000.0", fillcolor="#fdf4ee"] ;
59 -> 60 ;
61 [label="MoSold <= 8.5\nmse = 2500000.0\nsamples = 4\nvalue = 109500.0", fillcolor="#fcf3ec"] ;
59 -> 61 ;
62 [label="FullBath <= 1.5\nmse = 555555.56\nsamples = 3\nvalue = 108666.67", fillcolor="#fcf3ec"] ;
61 -> 62 ;
63 [label="MasVnrArea <= 80.5\nmse = 222222.22\nsamples = 2\nvalue = 109333.33", fillcolor="#fcf3ec"] ;
62 -> 63 ;
64 [label="mse = 0.0\nsamples = 1\nvalue = 109000.0", fillcolor="#fcf3ec"] ;
63 -> 64 ;
65 [label="mse = 0.0\nsamples = 1\nvalue = 110000.0", fillcolor="#fcf3eb"] ;
63 -> 65 ;
66 [label="mse = 0.0\nsamples = 1\nvalue = 108000.0", fillcolor="#fdf3ec"] ;
62 -> 66 ;
67 [label="mse = 0.0\nsamples = 1\nvalue = 112000.0", fillcolor="#fcf2eb"] ;
61 -> 67 ;
68 [label="LotFrontage <= 65.0\nmse = 9000000.0\nsamples = 2\nvalue = 132000.0", fillcolor="#fcefe5"] ;
58 -> 68 ;
69 [label="mse = 0.0\nsamples = 1\nvalue = 135000.0", fillcolor="#fceee5"] ;
68 -> 69 ;
70 [label="mse = 0.0\nsamples = 1\nvalue = 129000.0", fillcolor="#fcefe6"] ;
68 -> 70 ;
71 [label="GarageCars <= 1.5\nmse = 17602222.22\nsamples = 2\nvalue = 89933.33", fillcolor="#fdf6f1"] ;
57 -> 71 ;
72 [label="mse = 0.0\nsamples = 1\nvalue = 84000.0", fillcolor="#fdf7f3"] ;
71 -> 72 ;
73 [label="mse = 0.0\nsamples = 1\nvalue = 92900.0", fillcolor="#fdf6f0"] ;
71 -> 73 ;
74 [label="Electrical_c <= 0.5\nmse = 69664062.25\nsamples = 2\nvalue = 47646.5", fillcolor="#fffefd"] ;
28 -> 74 ;
75 [label="mse = 0.0\nsamples = 1\nvalue = 55993.0", fillcolor="#fefcfa"] ;
74 -> 75 ;
76 [label="mse = 0.0\nsamples = 1\nvalue = 39300.0", fillcolor="#ffffff"] ;
74 -> 76 ;
77 [label="GarageArea <= 90.0\nmse = 73387587.94\nsamples = 17\nvalue = 108866.24", fillcolor="#fcf3ec"] ;
5 -> 77 ;
78 [label="BsmtFinType1_c <= 4.0\nmse = 39805000.0\nsamples = 3\nvalue = 92600.0", fillcolor="#fdf6f0"] ;
77 -> 78 ;
79 [label="mse = 0.0\nsamples = 1\nvalue = 82500.0", fillcolor="#fdf7f3"] ;
78 -> 79 ;
80 [label="TotalBsmtSF <= 822.0\nmse = 7735555.56\nsamples = 2\nvalue = 95966.67", fillcolor="#fdf5ef"] ;
78 -> 80 ;
81 [label="mse = 0.0\nsamples = 1\nvalue = 94000.0", fillcolor="#fdf5f0"] ;
80 -> 81 ;
82 [label="mse = 0.0\nsamples = 1\nvalue = 99900.0", fillcolor="#fdf4ee"] ;
80 -> 82 ;
83 [label="Id <= 717.5\nmse = 37882715.4\nsamples = 14\nvalue = 111035.07", fillcolor="#fcf2eb"] ;
77 -> 83 ;
84 [label="YearRemodAdd <= 1996.5\nmse = 11785886.45\nsamples = 10\nvalue = 107956.91", fillcolor="#fdf3ec"] ;
83 -> 84 ;
85 [label="MSSubClass <= 40.0\nmse = 3736035.92\nsamples = 4\nvalue = 104221.71", fillcolor="#fdf4ed"] ;
84 -> 85 ;
86 [label="LotFrontage <= 60.52\nmse = 562500.0\nsamples = 2\nvalue = 105750.0", fillcolor="#fdf3ed"] ;
85 -> 86 ;
87 [label="mse = 0.0\nsamples = 1\nvalue = 105000.0", fillcolor="#fdf3ed"] ;
86 -> 87 ;
88 [label="mse = 0.0\nsamples = 1\nvalue = 106500.0", fillcolor="#fdf3ec"] ;
86 -> 88 ;
89 [label="2ndFlrSF <= 424.5\nmse = 700928.0\nsamples = 2\nvalue = 102184.0", fillcolor="#fdf4ee"] ;
85 -> 89 ;
90 [label="mse = 0.0\nsamples = 1\nvalue = 102776.0", fillcolor="#fdf4ed"] ;
89 -> 90 ;
91 [label="mse = 0.0\nsamples = 1\nvalue = 101000.0", fillcolor="#fdf4ee"] ;
89 -> 91 ;
92 [label="Exterior2nd_c <= 9.5\nmse = 5993333.33\nsamples = 6\nvalue = 109700.0", fillcolor="#fcf3ec"] ;
84 -> 92 ;
93 [label="mse = 0.0\nsamples = 1\nvalue = 118000.0", fillcolor="#fcf1e9"] ;
92 -> 93 ;
94 [label="Foundation_c <= 1.0\nmse = 1149234.69\nsamples = 5\nvalue = 109107.14", fillcolor="#fcf3ec"] ;
92 -> 94 ;
95 [label="OverallQual <= 5.5\nmse = 43209.88\nsamples = 3\nvalue = 109888.89", fillcolor="#fcf3eb"] ;
94 -> 95 ;
96 [label="mse = 0.0\nsamples = 1\nvalue = 109500.0", fillcolor="#fcf3ec"] ;
95 -> 96 ;
97 [label="mse = 0.0\nsamples = 2\nvalue = 110000.0", fillcolor="#fcf3eb"] ;
95 -> 97 ;
98 [label="Foundation_c <= 2.5\nmse = 60000.0\nsamples = 2\nvalue = 107700.0", fillcolor="#fdf3ec"] ;
94 -> 98 ;
99 [label="mse = 0.0\nsamples = 1\nvalue = 108000.0", fillcolor="#fdf3ec"] ;
98 -> 99 ;
100 [label="mse = 0.0\nsamples = 1\nvalue = 107500.0", fillcolor="#fdf3ec"] ;
98 -> 100 ;
101 [label="YearRemodAdd <= 1980.0\nmse = 11937500.0\nsamples = 4\nvalue = 119500.0", fillcolor="#fcf1e9"] ;
83 -> 101 ;
102 [label="BsmtFinSF1 <= 95.5\nmse = 4860000.0\nsamples = 2\nvalue = 121800.0", fillcolor="#fcf0e8"] ;
101 -> 102 ;
103 [label="mse = 0.0\nsamples = 1\nvalue = 120000.0", fillcolor="#fcf1e9"] ;
102 -> 103 ;
104 [label="mse = 0.0\nsamples = 1\nvalue = 124500.0", fillcolor="#fcf0e7"] ;
102 -> 104 ;
105 [label="GarageArea <= 493.0\nmse = 222222.22\nsamples = 2\nvalue = 115666.67", fillcolor="#fcf2ea"] ;
101 -> 105 ;
106 [label="mse = 0.0\nsamples = 1\nvalue = 116000.0", fillcolor="#fcf1ea"] ;
105 -> 106 ;
107 [label="mse = 0.0\nsamples = 1\nvalue = 115000.0", fillcolor="#fcf2ea"] ;
105 -> 107 ;
108 [label="OverallCond <= 4.5\nmse = 364843017.88\nsamples = 34\nvalue = 118809.66", fillcolor="#fcf1e9"] ;
4 -> 108 ;
109 [label="MoSold <= 7.5\nmse = 219201388.89\nsamples = 5\nvalue = 84583.33", fillcolor="#fdf7f2"] ;
108 -> 109 ;
110 [label="BsmtFinSF1 <= 125.0\nmse = 61166666.67\nsamples = 3\nvalue = 97500.0", fillcolor="#fdf5ef"] ;
109 -> 110 ;
111 [label="Id <= 910.5\nmse = 1000000.0\nsamples = 2\nvalue = 92000.0", fillcolor="#fdf6f0"] ;
110 -> 111 ;
112 [label="mse = 0.0\nsamples = 1\nvalue = 93000.0", fillcolor="#fdf6f0"] ;
111 -> 112 ;
113 [label="mse = 0.0\nsamples = 1\nvalue = 91000.0", fillcolor="#fdf6f1"] ;
111 -> 113 ;
114 [label="mse = 0.0\nsamples = 1\nvalue = 108500.0", fillcolor="#fcf3ec"] ;
110 -> 114 ;
115 [label="BsmtQual_c <= 2.0\nmse = 43555555.56\nsamples = 2\nvalue = 71666.67", fillcolor="#fef9f6"] ;
109 -> 115 ;
116 [label="mse = 0.0\nsamples = 1\nvalue = 67000.0", fillcolor="#fefaf7"] ;
115 -> 116 ;
117 [label="mse = 0.0\nsamples = 1\nvalue = 81000.0", fillcolor="#fdf8f3"] ;
115 -> 117 ;
118 [label="BsmtUnfSF <= 296.0\nmse = 214798904.79\nsamples = 29\nvalue = 123178.98", fillcolor="#fcf0e8"] ;
108 -> 118 ;
119 [label="YearRemodAdd <= 2000.5\nmse = 52093025.0\nsamples = 8\nvalue = 138365.0", fillcolor="#fbeee4"] ;
118 -> 119 ;
120 [label="OpenPorchSF <= 10.0\nmse = 16035585.94\nsamples = 6\nvalue = 135331.25", fillcolor="#fceee4"] ;
119 -> 120 ;
121 [label="GrLivArea <= 916.0\nmse = 1050625.0\nsamples = 2\nvalue = 129225.0", fillcolor="#fcefe6"] ;
120 -> 121 ;
122 [label="mse = 0.0\nsamples = 1\nvalue = 128200.0", fillcolor="#fcefe6"] ;
121 -> 122 ;
123 [label="mse = 0.0\nsamples = 1\nvalue = 130250.0", fillcolor="#fcefe6"] ;
121 -> 123 ;
124 [label="BsmtFinSF1 <= 202.0\nmse = 4458888.89\nsamples = 4\nvalue = 137366.67", fillcolor="#fbeee4"] ;
120 -> 124 ;
125 [label="MasVnrType_c <= 1.5\nmse = 7500.0\nsamples = 2\nvalue = 138850.0", fillcolor="#fbede3"] ;
124 -> 125 ;
126 [label="mse = 0.0\nsamples = 1\nvalue = 139000.0", fillcolor="#fbede3"] ;
125 -> 126 ;
127 [label="mse = 0.0\nsamples = 1\nvalue = 138800.0", fillcolor="#fbede3"] ;
125 -> 127 ;
128 [label="GarageYrBlt <= 1986.5\nmse = 160000.0\nsamples = 2\nvalue = 134400.0", fillcolor="#fceee5"] ;
124 -> 128 ;
129 [label="mse = 0.0\nsamples = 1\nvalue = 134000.0", fillcolor="#fceee5"] ;
128 -> 129 ;
130 [label="mse = 0.0\nsamples = 1\nvalue = 134800.0", fillcolor="#fceee5"] ;
128 -> 130 ;
131 [label="BsmtExposure_c <= 2.5\nmse = 12250000.0\nsamples = 2\nvalue = 150500.0", fillcolor="#fbebe0"] ;
119 -> 131 ;
132 [label="mse = 0.0\nsamples = 1\nvalue = 154000.0", fillcolor="#fbebdf"] ;
131 -> 132 ;
133 [label="mse = 0.0\nsamples = 1\nvalue = 147000.0", fillcolor="#fbece1"] ;
131 -> 133 ;
134 [label="HalfBath <= 0.5\nmse = 179599497.69\nsamples = 21\nvalue = 119074.65", fillcolor="#fcf1e9"] ;
118 -> 134 ;
135 [label="Id <= 167.5\nmse = 103182749.27\nsamples = 17\nvalue = 116114.0", fillcolor="#fcf1ea"] ;
134 -> 135 ;
136 [label="GarageArea <= 297.5\nmse = 20636718.75\nsamples = 3\nvalue = 128062.5", fillcolor="#fcefe6"] ;
135 -> 136 ;
137 [label="mse = 0.0\nsamples = 1\nvalue = 135750.0", fillcolor="#fbeee4"] ;
136 -> 137 ;
138 [label="BsmtFinType1_c <= 2.5\nmse = 1250000.0\nsamples = 2\nvalue = 125500.0", fillcolor="#fcf0e7"] ;
136 -> 138 ;
139 [label="mse = 0.0\nsamples = 1\nvalue = 128000.0", fillcolor="#fcefe6"] ;
138 -> 139 ;
140 [label="mse = 0.0\nsamples = 1\nvalue = 125000.0", fillcolor="#fcf0e7"] ;
138 -> 140 ;
141 [label="OpenPorchSF <= 85.0\nmse = 69292845.13\nsamples = 14\nvalue = 112290.48", fillcolor="#fcf2eb"] ;
135 -> 141 ;
142 [label="BsmtQual_c <= 2.0\nmse = 53109046.65\nsamples = 11\nvalue = 109320.37", fillcolor="#fcf3ec"] ;
141 -> 142 ;
143 [label="mse = 0.0\nsamples = 1\nvalue = 89471.0", fillcolor="#fdf6f1"] ;
142 -> 143 ;
144 [label="TotalBsmtSF <= 897.5\nmse = 32954761.88\nsamples = 10\nvalue = 110423.11", fillcolor="#fcf2eb"] ;
142 -> 144 ;
145 [label="LotFrontage <= 74.5\nmse = 9000000.0\nsamples = 2\nvalue = 122000.0", fillcolor="#fcf0e8"] ;
144 -> 145 ;
146 [label="mse = 0.0\nsamples = 1\nvalue = 119000.0", fillcolor="#fcf1e9"] ;
145 -> 146 ;
147 [label="mse = 0.0\nsamples = 1\nvalue = 125000.0", fillcolor="#fcf0e7"] ;
145 -> 147 ;
148 [label="ExterQual_c <= 2.5\nmse = 17101932.0\nsamples = 8\nvalue = 108976.0", fillcolor="#fcf3ec"] ;
144 -> 148 ;
149 [label="mse = 0.0\nsamples = 1\nvalue = 100000.0", fillcolor="#fdf4ee"] ;
148 -> 149 ;
150 [label="YearRemodAdd <= 1956.0\nmse = 6391011.92\nsamples = 7\nvalue = 110258.29", fillcolor="#fcf3eb"] ;
148 -> 150 ;
151 [label="BsmtCond_c <= 1.5\nmse = 1000000.0\nsamples = 2\nvalue = 114000.0", fillcolor="#fcf2ea"] ;
150 -> 151 ;
152 [label="mse = 0.0\nsamples = 1\nvalue = 113000.0", fillcolor="#fcf2eb"] ;
151 -> 152 ;
153 [label="mse = 0.0\nsamples = 1\nvalue = 115000.0", fillcolor="#fcf2ea"] ;
151 -> 153 ;
154 [label="GarageArea <= 326.0\nmse = 707178.24\nsamples = 5\nvalue = 108761.6", fillcolor="#fcf3ec"] ;
150 -> 154 ;
155 [label="LotArea <= 7489.0\nmse = 1600.0\nsamples = 3\nvalue = 107980.0", fillcolor="#fdf3ec"] ;
154 -> 155 ;
156 [label="mse = 0.0\nsamples = 1\nvalue = 107900.0", fillcolor="#fdf3ec"] ;
155 -> 156 ;
157 [label="mse = 0.0\nsamples = 2\nvalue = 108000.0", fillcolor="#fdf3ec"] ;
155 -> 157 ;
158 [label="GrLivArea <= 1051.5\nmse = 190959.36\nsamples = 2\nvalue = 109543.2", fillcolor="#fcf3ec"] ;
154 -> 158 ;
159 [label="mse = 0.0\nsamples = 1\nvalue = 109008.0", fillcolor="#fcf3ec"] ;
158 -> 159 ;
160 [label="mse = 0.0\nsamples = 1\nvalue = 109900.0", fillcolor="#fcf3eb"] ;
158 -> 160 ;
161 [label="WoodDeckSF <= 77.0\nmse = 4145920.14\nsamples = 3\nvalue = 121695.83", fillcolor="#fcf0e8"] ;
141 -> 161 ;
162 [label="LotFrontage <= 70.02\nmse = 160000.0\nsamples = 2\nvalue = 120800.0", fillcolor="#fcf1e8"] ;
161 -> 162 ;
163 [label="mse = 0.0\nsamples = 1\nvalue = 120000.0", fillcolor="#fcf1e9"] ;
162 -> 163 ;
164 [label="mse = 0.0\nsamples = 1\nvalue = 121000.0", fillcolor="#fcf1e8"] ;
162 -> 164 ;
165 [label="mse = 0.0\nsamples = 1\nvalue = 126175.0", fillcolor="#fcf0e7"] ;
161 -> 165 ;
166 [label="SaleType_c <= 4.0\nmse = 141125000.0\nsamples = 4\nvalue = 143500.0", fillcolor="#fbede2"] ;
134 -> 166 ;
167 [label="mse = 0.0\nsamples = 1\nvalue = 126500.0", fillcolor="#fcf0e7"] ;
166 -> 167 ;
168 [label="MasVnrType_c <= 1.5\nmse = 59722222.22\nsamples = 3\nvalue = 149166.67", fillcolor="#fbece1"] ;
166 -> 168 ;
169 [label="mse = 0.0\nsamples = 1\nvalue = 160000.0", fillcolor="#fbeade"] ;
168 -> 169 ;
170 [label="LotConfig_c <= 2.0\nmse = 1562500.0\nsamples = 2\nvalue = 143750.0", fillcolor="#fbede2"] ;
168 -> 170 ;
171 [label="mse = 0.0\nsamples = 1\nvalue = 145000.0", fillcolor="#fbece2"] ;
170 -> 171 ;
172 [label="mse = 0.0\nsamples = 1\nvalue = 142500.0", fillcolor="#fbede2"] ;
170 -> 172 ;
173 [label="1stFlrSF <= 907.0\nmse = 406859519.51\nsamples = 132\nvalue = 132628.52", fillcolor="#fcefe5"] ;
3 -> 173 ;
174 [label="LotArea <= 4348.0\nmse = 429688343.72\nsamples = 46\nvalue = 117681.09", fillcolor="#fcf1e9"] ;
173 -> 174 ;
175 [label="MoSold <= 7.5\nmse = 15684400.0\nsamples = 7\nvalue = 86040.0", fillcolor="#fdf7f2"] ;
174 -> 175 ;
176 [label="GarageArea <= 132.0\nmse = 5156326.53\nsamples = 5\nvalue = 83771.43", fillcolor="#fdf7f3"] ;
175 -> 176 ;
177 [label="mse = 0.0\nsamples = 1\nvalue = 79000.0", fillcolor="#fef8f4"] ;
176 -> 177 ;
178 [label="YearBuilt <= 1972.0\nmse = 1588888.89\nsamples = 4\nvalue = 84566.67", fillcolor="#fdf7f2"] ;
176 -> 178 ;
179 [label="GarageType_c <= 3.0\nmse = 80000.0\nsamples = 2\nvalue = 85800.0", fillcolor="#fdf7f2"] ;
178 -> 179 ;
180 [label="mse = 0.0\nsamples = 1\nvalue = 86000.0", fillcolor="#fdf7f2"] ;
179 -> 180 ;
181 [label="mse = 0.0\nsamples = 1\nvalue = 85400.0", fillcolor="#fdf7f2"] ;
179 -> 181 ;
182 [label="MoSold <= 5.5\nmse = 55555.56\nsamples = 2\nvalue = 83333.33", fillcolor="#fdf7f3"] ;
178 -> 182 ;
183 [label="mse = 0.0\nsamples = 1\nvalue = 83500.0", fillcolor="#fdf7f3"] ;
182 -> 183 ;
184 [label="mse = 0.0\nsamples = 1\nvalue = 83000.0", fillcolor="#fdf7f3"] ;
182 -> 184 ;
185 [label="SaleCondition_c <= 2.0\nmse = 222222.22\nsamples = 2\nvalue = 91333.33", fillcolor="#fdf6f1"] ;
175 -> 185 ;
186 [label="mse = 0.0\nsamples = 1\nvalue = 92000.0", fillcolor="#fdf6f0"] ;
185 -> 186 ;
187 [label="mse = 0.0\nsamples = 1\nvalue = 91000.0", fillcolor="#fdf6f1"] ;
185 -> 187 ;
188 [label="EnclosedPorch <= 112.5\nmse = 295864404.27\nsamples = 39\nvalue = 123232.16", fillcolor="#fcf0e8"] ;
174 -> 188 ;
189 [label="OverallQual <= 4.5\nmse = 190358810.87\nsamples = 36\nvalue = 125682.41", fillcolor="#fcf0e7"] ;
188 -> 189 ;
190 [label="GarageArea <= 298.0\nmse = 162979289.94\nsamples = 8\nvalue = 111288.46", fillcolor="#fcf2eb"] ;
189 -> 190 ;
191 [label="YearRemodAdd <= 1964.5\nmse = 32000000.0\nsamples = 2\nvalue = 92000.0", fillcolor="#fdf6f0"] ;
190 -> 191 ;
192 [label="mse = 0.0\nsamples = 1\nvalue = 100000.0", fillcolor="#fdf4ee"] ;
191 -> 192 ;
193 [label="mse = 0.0\nsamples = 1\nvalue = 88000.0", fillcolor="#fdf6f2"] ;
191 -> 193 ;
194 [label="1stFlrSF <= 851.5\nmse = 57175625.0\nsamples = 6\nvalue = 117075.0", fillcolor="#fcf1e9"] ;
190 -> 194 ;
195 [label="GrLivArea <= 1014.0\nmse = 22562500.0\nsamples = 2\nvalue = 124750.0", fillcolor="#fcf0e7"] ;
194 -> 195 ;
196 [label="mse = 0.0\nsamples = 1\nvalue = 129500.0", fillcolor="#fcefe6"] ;
195 -> 196 ;
197 [label="mse = 0.0\nsamples = 1\nvalue = 120000.0", fillcolor="#fcf1e9"] ;
195 -> 197 ;
198 [label="Id <= 1208.0\nmse = 14800347.22\nsamples = 4\nvalue = 111958.33", fillcolor="#fcf2eb"] ;
194 -> 198 ;
199 [label="MoSold <= 4.5\nmse = 250000.0\nsamples = 3\nvalue = 110250.0", fillcolor="#fcf3eb"] ;
198 -> 199 ;
200 [label="mse = 0.0\nsamples = 1\nvalue = 111250.0", fillcolor="#fcf2eb"] ;
199 -> 200 ;
201 [label="mse = 0.0\nsamples = 2\nvalue = 110000.0", fillcolor="#fcf3eb"] ;
199 -> 201 ;
202 [label="mse = 0.0\nsamples = 1\nvalue = 120500.0", fillcolor="#fcf1e9"] ;
198 -> 202 ;
203 [label="Foundation_c <= 1.5\nmse = 112517608.57\nsamples = 28\nvalue = 130246.34", fillcolor="#fcefe6"] ;
189 -> 203 ;
204 [label="BsmtUnfSF <= 452.0\nmse = 77466134.07\nsamples = 22\nvalue = 127148.48", fillcolor="#fcf0e7"] ;
203 -> 204 ;
205 [label="WoodDeckSF <= 227.5\nmse = 56134677.73\nsamples = 21\nvalue = 127996.88", fillcolor="#fcefe6"] ;
204 -> 205 ;
206 [label="BsmtHalfBath <= 0.5\nmse = 40053840.67\nsamples = 18\nvalue = 126582.76", fillcolor="#fcf0e7"] ;
205 -> 206 ;
207 [label="SaleCondition_c <= 0.5\nmse = 27351584.0\nsamples = 16\nvalue = 125004.0", fillcolor="#fcf0e7"] ;
206 -> 207 ;
208 [label="mse = 0.0\nsamples = 1\nvalue = 110000.0", fillcolor="#fcf3eb"] ;
207 -> 208 ;
209 [label="GarageCars <= 0.5\nmse = 18720399.31\nsamples = 15\nvalue = 125629.17", fillcolor="#fcf0e7"] ;
207 -> 209 ;
210 [label="mse = 0.0\nsamples = 1\nvalue = 112000.0", fillcolor="#fcf2eb"] ;
209 -> 210 ;
211 [label="LotArea <= 8599.5\nmse = 11106918.71\nsamples = 14\nvalue = 126221.74", fillcolor="#fcf0e7"] ;
209 -> 211 ;
212 [label="BsmtQual_c <= 2.5\nmse = 6965714.29\nsamples = 9\nvalue = 124600.0", fillcolor="#fcf0e7"] ;
211 -> 212 ;
213 [label="mse = 0.0\nsamples = 1\nvalue = 129500.0", fillcolor="#fcefe6"] ;
212 -> 213 ;
214 [label="MSZoning_c <= 3.5\nmse = 3458055.56\nsamples = 8\nvalue = 123783.33", fillcolor="#fcf0e8"] ;
212 -> 214 ;
215 [label="OverallCond <= 5.5\nmse = 1562400.0\nsamples = 6\nvalue = 124440.0", fillcolor="#fcf0e7"] ;
214 -> 215 ;
216 [label="mse = 0.0\nsamples = 2\nvalue = 123000.0", fillcolor="#fcf0e8"] ;
215 -> 216 ;
217 [label="GrLivArea <= 859.0\nmse = 300000.0\nsamples = 4\nvalue = 125400.0", fillcolor="#fcf0e7"] ;
215 -> 217 ;
218 [label="YearBuilt <= 1977.0\nmse = 40000.0\nsamples = 2\nvalue = 124700.0", fillcolor="#fcf0e7"] ;
217 -> 218 ;
219 [label="mse = 0.0\nsamples = 1\nvalue = 124900.0", fillcolor="#fcf0e7"] ;
218 -> 219 ;
220 [label="mse = 0.0\nsamples = 1\nvalue = 124500.0", fillcolor="#fcf0e7"] ;
218 -> 220 ;
221 [label="MasVnrType_c <= 1.5\nmse = 62500.0\nsamples = 2\nvalue = 125750.0", fillcolor="#fcf0e7"] ;
217 -> 221 ;
222 [label="mse = 0.0\nsamples = 1\nvalue = 125500.0", fillcolor="#fcf0e7"] ;
221 -> 222 ;
223 [label="mse = 0.0\nsamples = 1\nvalue = 126000.0", fillcolor="#fcf0e7"] ;
221 -> 223 ;
224 [label="mse = 0.0\nsamples = 2\nvalue = 120500.0", fillcolor="#fcf1e9"] ;
214 -> 224 ;
225 [label="MoSold <= 3.5\nmse = 7093580.25\nsamples = 5\nvalue = 128744.44", fillcolor="#fcefe6"] ;
211 -> 225 ;
226 [label="mse = 0.0\nsamples = 1\nvalue = 122000.0", fillcolor="#fcf0e8"] ;
225 -> 226 ;
227 [label="MiscFeature_c <= 2.0\nmse = 1583593.75\nsamples = 4\nvalue = 129587.5", fillcolor="#fcefe6"] ;
225 -> 227 ;
228 [label="Neighborhood_c <= 11.5\nmse = 174722.22\nsamples = 3\nvalue = 130283.33", fillcolor="#fcefe6"] ;
227 -> 228 ;
229 [label="TotRmsAbvGrd <= 5.5\nmse = 55555.56\nsamples = 2\nvalue = 130666.67", fillcolor="#fcefe6"] ;
228 -> 229 ;
230 [label="mse = 0.0\nsamples = 1\nvalue = 131000.0", fillcolor="#fcefe6"] ;
229 -> 230 ;
231 [label="mse = 0.0\nsamples = 1\nvalue = 130500.0", fillcolor="#fcefe6"] ;
229 -> 231 ;
232 [label="mse = 0.0\nsamples = 1\nvalue = 129900.0", fillcolor="#fcefe6"] ;
228 -> 232 ;
233 [label="mse = 0.0\nsamples = 1\nvalue = 127500.0", fillcolor="#fcefe7"] ;
227 -> 233 ;
234 [label="OverallCond <= 7.5\nmse = 6502500.0\nsamples = 2\nvalue = 136450.0", fillcolor="#fbeee4"] ;
206 -> 234 ;
235 [label="mse = 0.0\nsamples = 1\nvalue = 139000.0", fillcolor="#fbede3"] ;
234 -> 235 ;
236 [label="mse = 0.0\nsamples = 1\nvalue = 133900.0", fillcolor="#fceee5"] ;
234 -> 236 ;
237 [label="LotArea <= 8815.0\nmse = 5388888.89\nsamples = 3\nvalue = 141666.67", fillcolor="#fbede3"] ;
205 -> 237 ;
238 [label="mse = 0.0\nsamples = 1\nvalue = 138500.0", fillcolor="#fbeee4"] ;
237 -> 238 ;
239 [label="GarageFinish_c <= 1.5\nmse = 562500.0\nsamples = 2\nvalue = 143250.0", fillcolor="#fbede2"] ;
237 -> 239 ;
240 [label="mse = 0.0\nsamples = 1\nvalue = 144000.0", fillcolor="#fbede2"] ;
239 -> 240 ;
241 [label="mse = 0.0\nsamples = 1\nvalue = 142500.0", fillcolor="#fbede2"] ;
239 -> 241 ;
242 [label="mse = 0.0\nsamples = 1\nvalue = 100000.0", fillcolor="#fdf4ee"] ;
204 -> 242 ;
243 [label="BsmtUnfSF <= 187.5\nmse = 54224375.0\nsamples = 6\nvalue = 143025.0", fillcolor="#fbede2"] ;
203 -> 243 ;
244 [label="YrSold <= 2008.5\nmse = 13265555.56\nsamples = 5\nvalue = 146866.67", fillcolor="#fbece1"] ;
243 -> 244 ;
245 [label="OverallQual <= 5.5\nmse = 135000.0\nsamples = 3\nvalue = 149300.0", fillcolor="#fbece1"] ;
244 -> 245 ;
246 [label="mse = 0.0\nsamples = 1\nvalue = 149900.0", fillcolor="#fbece0"] ;
245 -> 246 ;
247 [label="Id <= 823.0\nmse = 20000.0\nsamples = 2\nvalue = 149100.0", fillcolor="#fbece1"] ;
245 -> 247 ;
248 [label="mse = 0.0\nsamples = 1\nvalue = 149000.0", fillcolor="#fbece1"] ;
247 -> 248 ;
249 [label="mse = 0.0\nsamples = 1\nvalue = 149300.0", fillcolor="#fbece1"] ;
247 -> 249 ;
250 [label="MoSold <= 5.5\nmse = 4000000.0\nsamples = 2\nvalue = 142000.0", fillcolor="#fbede3"] ;
244 -> 250 ;
251 [label="mse = 0.0\nsamples = 1\nvalue = 140000.0", fillcolor="#fbede3"] ;
250 -> 251 ;
252 [label="mse = 0.0\nsamples = 1\nvalue = 144000.0", fillcolor="#fbede2"] ;
250 -> 252 ;
253 [label="mse = 0.0\nsamples = 1\nvalue = 131500.0", fillcolor="#fcefe5"] ;
243 -> 253 ;
254 [label="TotalBsmtSF <= 740.0\nmse = 141691930.89\nsamples = 3\nvalue = 79127.67", fillcolor="#fef8f4"] ;
188 -> 254 ;
255 [label="Foundation_c <= 0.5\nmse = 2250000.0\nsamples = 2\nvalue = 87500.0", fillcolor="#fdf7f2"] ;
254 -> 255 ;
256 [label="mse = 0.0\nsamples = 1\nvalue = 86000.0", fillcolor="#fdf7f2"] ;
255 -> 256 ;
257 [label="mse = 0.0\nsamples = 1\nvalue = 89000.0", fillcolor="#fdf6f1"] ;
255 -> 257 ;
258 [label="mse = 0.0\nsamples = 1\nvalue = 62383.0", fillcolor="#fefbf9"] ;
254 -> 258 ;
259 [label="TotalBsmtSF <= 1123.5\nmse = 214762200.69\nsamples = 86\nvalue = 140514.17", fillcolor="#fbede3"] ;
173 -> 259 ;
260 [label="GarageArea <= 438.0\nmse = 153782139.31\nsamples = 77\nvalue = 138270.09", fillcolor="#fbeee4"] ;
259 -> 260 ;
261 [label="OverallCond <= 6.5\nmse = 111833967.22\nsamples = 37\nvalue = 132908.06", fillcolor="#fcefe5"] ;
260 -> 261 ;
262 [label="LotArea <= 10151.0\nmse = 81085093.75\nsamples = 24\nvalue = 128512.5", fillcolor="#fcefe6"] ;
261 -> 262 ;
263 [label="TotalBsmtSF <= 1053.0\nmse = 71366041.67\nsamples = 16\nvalue = 123875.0", fillcolor="#fcf0e8"] ;
262 -> 263 ;
264 [label="GrLivArea <= 968.5\nmse = 33395374.15\nsamples = 14\nvalue = 121428.57", fillcolor="#fcf1e8"] ;
263 -> 264 ;
265 [label="GarageType_c <= 3.0\nmse = 6593580.25\nsamples = 5\nvalue = 116655.56", fillcolor="#fcf1ea"] ;
264 -> 265 ;
266 [label="YearBuilt <= 1957.5\nmse = 750000.0\nsamples = 2\nvalue = 114000.0", fillcolor="#fcf2ea"] ;
265 -> 266 ;
267 [label="mse = 0.0\nsamples = 1\nvalue = 112500.0", fillcolor="#fcf2eb"] ;
266 -> 267 ;
268 [label="mse = 0.0\nsamples = 1\nvalue = 114500.0", fillcolor="#fcf2ea"] ;
266 -> 268 ;
269 [label="YrSold <= 2008.0\nmse = 1113600.0\nsamples = 3\nvalue = 118780.0", fillcolor="#fcf1e9"] ;
265 -> 269 ;
270 [label="GarageYrBlt <= 1980.0\nmse = 35555.56\nsamples = 2\nvalue = 119633.33", fillcolor="#fcf1e9"] ;
269 -> 270 ;
271 [label="mse = 0.0\nsamples = 1\nvalue = 119900.0", fillcolor="#fcf1e9"] ;
270 -> 271 ;
272 [label="mse = 0.0\nsamples = 1\nvalue = 119500.0", fillcolor="#fcf1e9"] ;
270 -> 272 ;
273 [label="mse = 0.0\nsamples = 1\nvalue = 117500.0", fillcolor="#fcf1e9"] ;
269 -> 273 ;
274 [label="Condition1_c <= 1.5\nmse = 23595763.89\nsamples = 9\nvalue = 125008.33", fillcolor="#fcf0e7"] ;
264 -> 274 ;
275 [label="MasVnrType_c <= 1.0\nmse = 55555.56\nsamples = 2\nvalue = 118333.33", fillcolor="#fcf1e9"] ;
274 -> 275 ;
276 [label="mse = 0.0\nsamples = 1\nvalue = 118500.0", fillcolor="#fcf1e9"] ;
275 -> 276 ;
277 [label="mse = 0.0\nsamples = 1\nvalue = 118000.0", fillcolor="#fcf1e9"] ;
275 -> 277 ;
278 [label="LotArea <= 8215.0\nmse = 11640000.0\nsamples = 7\nvalue = 127233.33", fillcolor="#fcf0e7"] ;
274 -> 278 ;
279 [label="GarageYrBlt <= 1953.5\nmse = 722500.0\nsamples = 2\nvalue = 132850.0", fillcolor="#fcefe5"] ;
278 -> 279 ;
280 [label="mse = 0.0\nsamples = 1\nvalue = 132000.0", fillcolor="#fcefe5"] ;
279 -> 280 ;
281 [label="mse = 0.0\nsamples = 1\nvalue = 133700.0", fillcolor="#fceee5"] ;
279 -> 281 ;
282 [label="Id <= 732.5\nmse = 3170612.24\nsamples = 5\nvalue = 125628.57", fillcolor="#fcf0e7"] ;
278 -> 282 ;
283 [label="YearBuilt <= 1968.5\nmse = 62500.0\nsamples = 2\nvalue = 124250.0", fillcolor="#fcf0e7"] ;
282 -> 283 ;
284 [label="mse = 0.0\nsamples = 1\nvalue = 124500.0", fillcolor="#fcf0e7"] ;
283 -> 284 ;
285 [label="mse = 0.0\nsamples = 1\nvalue = 124000.0", fillcolor="#fcf0e8"] ;
283 -> 285 ;
286 [label="GarageYrBlt <= 1987.25\nmse = 1402222.22\nsamples = 3\nvalue = 127466.67", fillcolor="#fcefe7"] ;
282 -> 286 ;
287 [label="SaleCondition_c <= 2.5\nmse = 490000.0\nsamples = 2\nvalue = 128200.0", fillcolor="#fcefe6"] ;
286 -> 287 ;
288 [label="mse = 0.0\nsamples = 1\nvalue = 127500.0", fillcolor="#fcefe7"] ;
287 -> 288 ;
289 [label="mse = 0.0\nsamples = 1\nvalue = 128900.0", fillcolor="#fcefe6"] ;
287 -> 289 ;
290 [label="mse = 0.0\nsamples = 1\nvalue = 126000.0", fillcolor="#fcf0e7"] ;
286 -> 290 ;
291 [label="BsmtFinSF1 <= 810.5\nmse = 2000000.0\nsamples = 2\nvalue = 141000.0", fillcolor="#fbede3"] ;
263 -> 291 ;
292 [label="mse = 0.0\nsamples = 1\nvalue = 142000.0", fillcolor="#fbede3"] ;
291 -> 292 ;
293 [label="mse = 0.0\nsamples = 1\nvalue = 139000.0", fillcolor="#fbede3"] ;
291 -> 293 ;
294 [label="BsmtFinType1_c <= 0.5\nmse = 15014648.44\nsamples = 8\nvalue = 135468.75", fillcolor="#fceee4"] ;
262 -> 294 ;
295 [label="GarageType_c <= 3.0\nmse = 2888888.89\nsamples = 3\nvalue = 141666.67", fillcolor="#fbede3"] ;
294 -> 295 ;
296 [label="GarageYrBlt <= 1959.0\nmse = 250000.0\nsamples = 2\nvalue = 140500.0", fillcolor="#fbede3"] ;
295 -> 296 ;
297 [label="mse = 0.0\nsamples = 1\nvalue = 140000.0", fillcolor="#fbede3"] ;
296 -> 297 ;
298 [label="mse = 0.0\nsamples = 1\nvalue = 141000.0", fillcolor="#fbede3"] ;
296 -> 298 ;
299 [label="mse = 0.0\nsamples = 1\nvalue = 144000.0", fillcolor="#fbede2"] ;
295 -> 299 ;
300 [label="Id <= 414.0\nmse = 6902366.86\nsamples = 5\nvalue = 134038.46", fillcolor="#fceee5"] ;
294 -> 300 ;
301 [label="mse = 0.0\nsamples = 1\nvalue = 129500.0", fillcolor="#fcefe6"] ;
300 -> 301 ;
302 [label="LotArea <= 10432.0\nmse = 940000.0\nsamples = 4\nvalue = 135400.0", fillcolor="#fceee4"] ;
300 -> 302 ;
303 [label="GarageYrBlt <= 1959.0\nmse = 61224.49\nsamples = 2\nvalue = 134785.71", fillcolor="#fceee5"] ;
302 -> 303 ;
304 [label="mse = 0.0\nsamples = 1\nvalue = 135000.0", fillcolor="#fceee5"] ;
303 -> 304 ;
305 [label="mse = 0.0\nsamples = 1\nvalue = 134500.0", fillcolor="#fceee5"] ;
303 -> 305 ;
306 [label="TotRmsAbvGrd <= 5.0\nmse = 55555.56\nsamples = 2\nvalue = 136833.33", fillcolor="#fbeee4"] ;
302 -> 306 ;
307 [label="mse = 0.0\nsamples = 1\nvalue = 137000.0", fillcolor="#fbeee4"] ;
306 -> 307 ;
308 [label="mse = 0.0\nsamples = 1\nvalue = 136500.0", fillcolor="#fbeee4"] ;
306 -> 308 ;
309 [label="GarageArea <= 375.0\nmse = 68740909.09\nsamples = 13\nvalue = 140900.0", fillcolor="#fbede3"] ;
261 -> 309 ;
310 [label="OpenPorchSF <= 8.0\nmse = 45909806.09\nsamples = 11\nvalue = 143042.11", fillcolor="#fbede2"] ;
309 -> 310 ;
311 [label="BsmtUnfSF <= 318.5\nmse = 16128266.67\nsamples = 7\nvalue = 145920.0", fillcolor="#fbece2"] ;
310 -> 311 ;
312 [label="HeatingQC_c <= 1.0\nmse = 3467430.56\nsamples = 5\nvalue = 144158.33", fillcolor="#fbede2"] ;
311 -> 312 ;
313 [label="LotArea <= 10126.5\nmse = 55555.56\nsamples = 3\nvalue = 145166.67", fillcolor="#fbece2"] ;
312 -> 313 ;
314 [label="mse = 0.0\nsamples = 1\nvalue = 145500.0", fillcolor="#fbece2"] ;
313 -> 314 ;
315 [label="mse = 0.0\nsamples = 2\nvalue = 145000.0", fillcolor="#fbece2"] ;
313 -> 315 ;
316 [label="OverallQual <= 5.5\nmse = 1502222.22\nsamples = 2\nvalue = 141133.33", fillcolor="#fbede3"] ;
312 -> 316 ;
317 [label="mse = 0.0\nsamples = 1\nvalue = 139400.0", fillcolor="#fbede3"] ;
316 -> 317 ;
318 [label="mse = 0.0\nsamples = 1\nvalue = 142000.0", fillcolor="#fbede3"] ;
316 -> 318 ;
319 [label="BsmtQual_c <= 2.5\nmse = 4702222.22\nsamples = 2\nvalue = 152966.67", fillcolor="#fbebe0"] ;
311 -> 319 ;
320 [label="mse = 0.0\nsamples = 1\nvalue = 149900.0", fillcolor="#fbece0"] ;
319 -> 320 ;
321 [label="mse = 0.0\nsamples = 1\nvalue = 154500.0", fillcolor="#fbebdf"] ;
319 -> 321 ;
322 [label="LotArea <= 6948.5\nmse = 10062500.0\nsamples = 4\nvalue = 132250.0", fillcolor="#fcefe5"] ;
310 -> 322 ;
323 [label="mse = 0.0\nsamples = 1\nvalue = 127000.0", fillcolor="#fcf0e7"] ;
322 -> 323 ;
324 [label="GarageArea <= 259.0\nmse = 1166666.67\nsamples = 3\nvalue = 134000.0", fillcolor="#fceee5"] ;
322 -> 324 ;
325 [label="BsmtFinSF1 <= 615.5\nmse = 62500.0\nsamples = 2\nvalue = 134750.0", fillcolor="#fceee5"] ;
324 -> 325 ;
326 [label="mse = 0.0\nsamples = 1\nvalue = 135000.0", fillcolor="#fceee5"] ;
325 -> 326 ;
327 [label="mse = 0.0\nsamples = 1\nvalue = 134500.0", fillcolor="#fceee5"] ;
325 -> 327 ;
328 [label="mse = 0.0\nsamples = 1\nvalue = 132500.0", fillcolor="#fcefe5"] ;
324 -> 328 ;
329 [label="BsmtQual_c <= 2.5\nmse = 222222.22\nsamples = 2\nvalue = 127333.33", fillcolor="#fcf0e7"] ;
309 -> 329 ;
330 [label="mse = 0.0\nsamples = 1\nvalue = 128000.0", fillcolor="#fcefe6"] ;
329 -> 330 ;
331 [label="mse = 0.0\nsamples = 1\nvalue = 127000.0", fillcolor="#fcf0e7"] ;
329 -> 331 ;
332 [label="HeatingQC_c <= 3.0\nmse = 132123152.07\nsamples = 40\nvalue = 144314.55", fillcolor="#fbede2"] ;
260 -> 332 ;
333 [label="GarageArea <= 625.0\nmse = 111158950.62\nsamples = 22\nvalue = 150805.56", fillcolor="#fbebe0"] ;
332 -> 333 ;
334 [label="FireplaceQu_c <= 3.0\nmse = 64992438.56\nsamples = 18\nvalue = 153413.04", fillcolor="#fbebdf"] ;
333 -> 334 ;
335 [label="TotalBsmtSF <= 963.0\nmse = 27173469.39\nsamples = 16\nvalue = 151571.43", fillcolor="#fbebe0"] ;
334 -> 335 ;
336 [label="GarageType_c <= 1.5\nmse = 12887755.1\nsamples = 5\nvalue = 145928.57", fillcolor="#fbece2"] ;
335 -> 336 ;
337 [label="mse = 0.0\nsamples = 1\nvalue = 137500.0", fillcolor="#fbeee4"] ;
336 -> 337 ;
338 [label="GarageFinish_c <= 0.5\nmse = 1222222.22\nsamples = 4\nvalue = 147333.33", fillcolor="#fbece1"] ;
336 -> 338 ;
339 [label="mse = 0.0\nsamples = 1\nvalue = 145000.0", fillcolor="#fbece2"] ;
338 -> 339 ;
340 [label="Id <= 850.5\nmse = 160000.0\nsamples = 3\nvalue = 147800.0", fillcolor="#fbece1"] ;
338 -> 340 ;
341 [label="mse = 0.0\nsamples = 2\nvalue = 148000.0", fillcolor="#fbece1"] ;
340 -> 341 ;
342 [label="mse = 0.0\nsamples = 1\nvalue = 147000.0", fillcolor="#fbece1"] ;
340 -> 342 ;
343 [label="MasVnrArea <= 238.0\nmse = 10434948.98\nsamples = 11\nvalue = 154392.86", fillcolor="#fbebdf"] ;
335 -> 343 ;
344 [label="YearRemodAdd <= 2000.0\nmse = 3928994.08\nsamples = 10\nvalue = 155115.38", fillcolor="#fbebdf"] ;
343 -> 344 ;
345 [label="BsmtFinSF2 <= 219.0\nmse = 2652343.75\nsamples = 7\nvalue = 154062.5", fillcolor="#fbebdf"] ;
344 -> 345 ;
346 [label="GarageType_c <= 3.0\nmse = 1500000.0\nsamples = 6\nvalue = 154500.0", fillcolor="#fbebdf"] ;
345 -> 346 ;
347 [label="OpenPorchSF <= 54.0\nmse = 534722.22\nsamples = 5\nvalue = 154916.67", fillcolor="#fbebdf"] ;
346 -> 347 ;
348 [label="BsmtQual_c <= 2.5\nmse = 160000.0\nsamples = 4\nvalue = 155200.0", fillcolor="#fbebdf"] ;
347 -> 348 ;
349 [label="mse = 0.0\nsamples = 1\nvalue = 156000.0", fillcolor="#fbeadf"] ;
348 -> 349 ;
350 [label="mse = 0.0\nsamples = 3\nvalue = 155000.0", fillcolor="#fbebdf"] ;
348 -> 350 ;
351 [label="mse = 0.0\nsamples = 1\nvalue = 153500.0", fillcolor="#fbebdf"] ;
347 -> 351 ;
352 [label="mse = 0.0\nsamples = 1\nvalue = 152000.0", fillcolor="#fbebe0"] ;
346 -> 352 ;
353 [label="mse = 0.0\nsamples = 1\nvalue = 151000.0", fillcolor="#fbebe0"] ;
345 -> 353 ;
354 [label="GarageArea <= 513.0\nmse = 1360000.0\nsamples = 3\nvalue = 156800.0", fillcolor="#fbeade"] ;
344 -> 354 ;
355 [label="WoodDeckSF <= 85.5\nmse = 187500.0\nsamples = 2\nvalue = 156250.0", fillcolor="#fbeadf"] ;
354 -> 355 ;
356 [label="mse = 0.0\nsamples = 1\nvalue = 157000.0", fillcolor="#fbeade"] ;
355 -> 356 ;
357 [label="mse = 0.0\nsamples = 1\nvalue = 156000.0", fillcolor="#fbeadf"] ;
355 -> 357 ;
358 [label="mse = 0.0\nsamples = 1\nvalue = 159000.0", fillcolor="#fbeade"] ;
354 -> 358 ;
359 [label="mse = 0.0\nsamples = 1\nvalue = 145000.0", fillcolor="#fbece2"] ;
343 -> 359 ;
360 [label="OverallCond <= 5.5\nmse = 52562500.0\nsamples = 2\nvalue = 172750.0", fillcolor="#fae8da"] ;
334 -> 360 ;
361 [label="mse = 0.0\nsamples = 1\nvalue = 180000.0", fillcolor="#fae6d8"] ;
360 -> 361 ;
362 [label="mse = 0.0\nsamples = 1\nvalue = 165500.0", fillcolor="#fae9dc"] ;
360 -> 362 ;
363 [label="LotArea <= 10022.5\nmse = 112730468.75\nsamples = 4\nvalue = 135812.5", fillcolor="#fbeee4"] ;
333 -> 363 ;
364 [label="KitchenQual_c <= 2.5\nmse = 250000.0\nsamples = 2\nvalue = 145500.0", fillcolor="#fbece2"] ;
363 -> 364 ;
365 [label="mse = 0.0\nsamples = 1\nvalue = 146000.0", fillcolor="#fbece1"] ;
364 -> 365 ;
366 [label="mse = 0.0\nsamples = 1\nvalue = 145000.0", fillcolor="#fbece2"] ;
364 -> 366 ;
367 [label="LandContour_c <= 2.0\nmse = 37515625.0\nsamples = 2\nvalue = 126125.0", fillcolor="#fcf0e7"] ;
363 -> 367 ;
368 [label="mse = 0.0\nsamples = 1\nvalue = 132250.0", fillcolor="#fcefe5"] ;
367 -> 368 ;
369 [label="mse = 0.0\nsamples = 1\nvalue = 120000.0", fillcolor="#fcf1e9"] ;
367 -> 369 ;
370 [label="YearRemodAdd <= 1982.5\nmse = 72532739.16\nsamples = 18\nvalue = 138055.36", fillcolor="#fbeee4"] ;
332 -> 370 ;
371 [label="BsmtFinSF1 <= 827.5\nmse = 45886587.9\nsamples = 15\nvalue = 135306.52", fillcolor="#fceee4"] ;
370 -> 371 ;
372 [label="Foundation_c <= 1.5\nmse = 38102653.06\nsamples = 10\nvalue = 131914.29", fillcolor="#fcefe5"] ;
371 -> 372 ;
373 [label="ScreenPorch <= 196.0\nmse = 18451388.89\nsamples = 8\nvalue = 130083.33", fillcolor="#fcefe6"] ;
372 -> 373 ;
374 [label="LotFrontage <= 100.0\nmse = 10376033.06\nsamples = 7\nvalue = 129181.82", fillcolor="#fcefe6"] ;
373 -> 374 ;
375 [label="OverallCond <= 5.5\nmse = 5740000.0\nsamples = 6\nvalue = 129900.0", fillcolor="#fcefe6"] ;
374 -> 375 ;
376 [label="GarageYrBlt <= 1973.5\nmse = 387755.1\nsamples = 3\nvalue = 128428.57", fillcolor="#fcefe6"] ;
375 -> 376 ;
377 [label="Neighborhood_c <= 11.0\nmse = 60000.0\nsamples = 2\nvalue = 128800.0", fillcolor="#fcefe6"] ;
376 -> 377 ;
378 [label="mse = 0.0\nsamples = 1\nvalue = 129000.0", fillcolor="#fcefe6"] ;
377 -> 378 ;
379 [label="mse = 0.0\nsamples = 1\nvalue = 128500.0", fillcolor="#fcefe6"] ;
377 -> 379 ;
380 [label="mse = 0.0\nsamples = 1\nvalue = 127500.0", fillcolor="#fcefe7"] ;
376 -> 380 ;
381 [label="GarageArea <= 512.0\nmse = 1388888.89\nsamples = 3\nvalue = 133333.33", fillcolor="#fceee5"] ;
375 -> 381 ;
382 [label="mse = 0.0\nsamples = 1\nvalue = 135000.0", fillcolor="#fceee5"] ;
381 -> 382 ;
383 [label="mse = 0.0\nsamples = 2\nvalue = 132500.0", fillcolor="#fcefe5"] ;
381 -> 383 ;
384 [label="mse = 0.0\nsamples = 1\nvalue = 122000.0", fillcolor="#fcf0e8"] ;
374 -> 384 ;
385 [label="mse = 0.0\nsamples = 1\nvalue = 140000.0", fillcolor="#fbede3"] ;
373 -> 385 ;
386 [label="LotShape_c <= 1.5\nmse = 15210000.0\nsamples = 2\nvalue = 142900.0", fillcolor="#fbede2"] ;
372 -> 386 ;
387 [label="mse = 0.0\nsamples = 1\nvalue = 146800.0", fillcolor="#fbece1"] ;
386 -> 387 ;
388 [label="mse = 0.0\nsamples = 1\nvalue = 139000.0", fillcolor="#fbede3"] ;
386 -> 388 ;
389 [label="GarageYrBlt <= 1976.5\nmse = 12250000.0\nsamples = 5\nvalue = 140583.33", fillcolor="#fbede3"] ;
371 -> 389 ;
390 [label="GarageType_c <= 3.0\nmse = 5640625.0\nsamples = 2\nvalue = 146125.0", fillcolor="#fbece1"] ;
389 -> 390 ;
391 [label="mse = 0.0\nsamples = 1\nvalue = 143750.0", fillcolor="#fbede2"] ;
390 -> 391 ;
392 [label="mse = 0.0\nsamples = 1\nvalue = 148500.0", fillcolor="#fbece1"] ;
390 -> 392 ;
393 [label="LotFrontage <= 69.0\nmse = 2857142.86\nsamples = 3\nvalue = 139000.0", fillcolor="#fbede3"] ;
389 -> 393 ;
394 [label="Id <= 1135.5\nmse = 222222.22\nsamples = 2\nvalue = 139666.67", fillcolor="#fbede3"] ;
393 -> 394 ;
395 [label="mse = 0.0\nsamples = 1\nvalue = 140000.0", fillcolor="#fbede3"] ;
394 -> 395 ;
396 [label="mse = 0.0\nsamples = 1\nvalue = 139000.0", fillcolor="#fbede3"] ;
394 -> 396 ;
397 [label="mse = 0.0\nsamples = 1\nvalue = 135000.0", fillcolor="#fceee5"] ;
393 -> 397 ;
398 [label="LotArea <= 9322.5\nmse = 460000.0\nsamples = 3\nvalue = 150700.0", fillcolor="#fbebe0"] ;
370 -> 398 ;
399 [label="Exterior2nd_c <= 8.0\nmse = 46875.0\nsamples = 2\nvalue = 150375.0", fillcolor="#fbebe0"] ;
398 -> 399 ;
400 [label="mse = 0.0\nsamples = 1\nvalue = 150500.0", fillcolor="#fbebe0"] ;
399 -> 400 ;
401 [label="mse = 0.0\nsamples = 1\nvalue = 150000.0", fillcolor="#fbece0"] ;
399 -> 401 ;
402 [label="mse = 0.0\nsamples = 1\nvalue = 152000.0", fillcolor="#fbebe0"] ;
398 -> 402 ;
403 [label="LotArea <= 8591.5\nmse = 179940100.0\nsamples = 9\nvalue = 166770.0", fillcolor="#fae9dc"] ;
259 -> 403 ;
404 [label="Id <= 984.0\nmse = 158751875.0\nsamples = 4\nvalue = 155225.0", fillcolor="#fbebdf"] ;
403 -> 404 ;
405 [label="BsmtUnfSF <= 645.5\nmse = 19846666.67\nsamples = 3\nvalue = 148300.0", fillcolor="#fbece1"] ;
404 -> 405 ;
406 [label="WoodDeckSF <= 228.0\nmse = 6250000.0\nsamples = 2\nvalue = 145500.0", fillcolor="#fbece2"] ;
405 -> 406 ;
407 [label="mse = 0.0\nsamples = 1\nvalue = 143000.0", fillcolor="#fbede2"] ;
406 -> 407 ;
408 [label="mse = 0.0\nsamples = 1\nvalue = 148000.0", fillcolor="#fbece1"] ;
406 -> 408 ;
409 [label="mse = 0.0\nsamples = 1\nvalue = 153900.0", fillcolor="#fbebdf"] ;
405 -> 409 ;
410 [label="mse = 0.0\nsamples = 1\nvalue = 176000.0", fillcolor="#fae7d9"] ;
404 -> 410 ;
411 [label="LandSlope_c <= 0.5\nmse = 45968888.89\nsamples = 5\nvalue = 174466.67", fillcolor="#fae7da"] ;
403 -> 411 ;
412 [label="MasVnrArea <= 134.5\nmse = 4934400.0\nsamples = 4\nvalue = 177360.0", fillcolor="#fae7d9"] ;
411 -> 412 ;
413 [label="MSSubClass <= 50.0\nmse = 1500000.0\nsamples = 3\nvalue = 179000.0", fillcolor="#fae6d8"] ;
412 -> 413 ;
414 [label="mse = 0.0\nsamples = 1\nvalue = 177500.0", fillcolor="#fae7d9"] ;
413 -> 414 ;
415 [label="GarageArea <= 242.0\nmse = 562500.0\nsamples = 2\nvalue = 179750.0", fillcolor="#fae6d8"] ;
413 -> 415 ;
416 [label="mse = 0.0\nsamples = 1\nvalue = 179000.0", fillcolor="#fae6d8"] ;
415 -> 416 ;
417 [label="mse = 0.0\nsamples = 1\nvalue = 180500.0", fillcolor="#fae6d8"] ;
415 -> 417 ;
418 [label="mse = 0.0\nsamples = 1\nvalue = 174900.0", fillcolor="#fae7d9"] ;
412 -> 418 ;
419 [label="mse = 0.0\nsamples = 1\nvalue = 160000.0", fillcolor="#fbeade"] ;
411 -> 419 ;
420 [label="BsmtFinSF1 <= 495.5\nmse = 1249728025.71\nsamples = 259\nvalue = 158971.12", fillcolor="#fbeade"] ;
2 -> 420 ;
421 [label="2ndFlrSF <= 691.5\nmse = 955635623.66\nsamples = 160\nvalue = 146110.83", fillcolor="#fbece1"] ;
420 -> 421 ;
422 [label="YearBuilt <= 1988.5\nmse = 637883426.84\nsamples = 97\nvalue = 133240.99", fillcolor="#fceee5"] ;
421 -> 422 ;
423 [label="OverallCond <= 2.5\nmse = 540542142.06\nsamples = 91\nvalue = 130043.15", fillcolor="#fcefe6"] ;
422 -> 423 ;
424 [label="YearBuilt <= 1927.5\nmse = 15240000.0\nsamples = 3\nvalue = 84100.0", fillcolor="#fdf7f3"] ;
423 -> 424 ;
425 [label="BedroomAbvGr <= 3.0\nmse = 1000000.0\nsamples = 2\nvalue = 86000.0", fillcolor="#fdf7f2"] ;
424 -> 425 ;
426 [label="mse = 0.0\nsamples = 1\nvalue = 85000.0", fillcolor="#fdf7f2"] ;
425 -> 426 ;
427 [label="mse = 0.0\nsamples = 1\nvalue = 87000.0", fillcolor="#fdf7f2"] ;
425 -> 427 ;
428 [label="mse = 0.0\nsamples = 1\nvalue = 76500.0", fillcolor="#fef8f5"] ;
424 -> 428 ;
429 [label="ScreenPorch <= 26.5\nmse = 473179946.65\nsamples = 88\nvalue = 131895.69", fillcolor="#fcefe5"] ;
423 -> 429 ;
430 [label="TotalBsmtSF <= 994.0\nmse = 435143718.22\nsamples = 78\nvalue = 129213.21", fillcolor="#fcefe6"] ;
429 -> 430 ;
431 [label="MoSold <= 5.5\nmse = 323217630.71\nsamples = 52\nvalue = 122921.13", fillcolor="#fcf0e8"] ;
430 -> 431 ;
432 [label="GarageArea <= 170.0\nmse = 221895399.31\nsamples = 19\nvalue = 112270.83", fillcolor="#fcf2eb"] ;
431 -> 432 ;
433 [label="1stFlrSF <= 1349.5\nmse = 28796875.0\nsamples = 3\nvalue = 90875.0", fillcolor="#fdf6f1"] ;
432 -> 433 ;
434 [label="Alley_c <= 0.5\nmse = 1388888.89\nsamples = 2\nvalue = 87833.33", fillcolor="#fdf6f2"] ;
433 -> 434 ;
435 [label="mse = 0.0\nsamples = 1\nvalue = 89500.0", fillcolor="#fdf6f1"] ;
434 -> 435 ;
436 [label="mse = 0.0\nsamples = 1\nvalue = 87000.0", fillcolor="#fdf7f2"] ;
434 -> 436 ;
437 [label="mse = 0.0\nsamples = 1\nvalue = 100000.0", fillcolor="#fdf4ee"] ;
433 -> 437 ;
438 [label="WoodDeckSF <= 59.5\nmse = 150647500.0\nsamples = 16\nvalue = 116550.0", fillcolor="#fcf1ea"] ;
432 -> 438 ;
439 [label="GarageYrBlt <= 1940.0\nmse = 109571428.57\nsamples = 11\nvalue = 121500.0", fillcolor="#fcf1e8"] ;
438 -> 439 ;
440 [label="TotRmsAbvGrd <= 6.5\nmse = 9722222.22\nsamples = 3\nvalue = 136666.67", fillcolor="#fbeee4"] ;
439 -> 440 ;
441 [label="mse = 0.0\nsamples = 1\nvalue = 132500.0", fillcolor="#fcefe5"] ;
440 -> 441 ;
442 [label="Exterior1st_c <= 10.5\nmse = 1562500.0\nsamples = 2\nvalue = 138750.0", fillcolor="#fbede3"] ;
440 -> 442 ;
443 [label="mse = 0.0\nsamples = 1\nvalue = 137500.0", fillcolor="#fbeee4"] ;
442 -> 443 ;
444 [label="mse = 0.0\nsamples = 1\nvalue = 140000.0", fillcolor="#fbede3"] ;
442 -> 444 ;
445 [label="FireplaceQu_c <= 3.0\nmse = 56958677.69\nsamples = 8\nvalue = 117363.64", fillcolor="#fcf1e9"] ;
439 -> 445 ;
446 [label="Foundation_c <= 0.5\nmse = 17138888.89\nsamples = 6\nvalue = 111833.33", fillcolor="#fcf2eb"] ;
445 -> 446 ;
447 [label="mse = 0.0\nsamples = 1\nvalue = 119000.0", fillcolor="#fcf1e9"] ;
446 -> 447 ;
448 [label="YearBuilt <= 1943.0\nmse = 8240000.0\nsamples = 5\nvalue = 110400.0", fillcolor="#fcf2eb"] ;
446 -> 448 ;
449 [label="mse = 0.0\nsamples = 1\nvalue = 105000.0", fillcolor="#fdf3ed"] ;
448 -> 449 ;
450 [label="BsmtFinSF1 <= 203.0\nmse = 1187500.0\nsamples = 4\nvalue = 111750.0", fillcolor="#fcf2eb"] ;
448 -> 450 ;
451 [label="MSZoning_c <= 3.5\nmse = 222222.22\nsamples = 3\nvalue = 112333.33", fillcolor="#fcf2eb"] ;
450 -> 451 ;
452 [label="mse = 0.0\nsamples = 1\nvalue = 113000.0", fillcolor="#fcf2eb"] ;
451 -> 452 ;
453 [label="mse = 0.0\nsamples = 2\nvalue = 112000.0", fillcolor="#fcf2eb"] ;
451 -> 453 ;
454 [label="mse = 0.0\nsamples = 1\nvalue = 110000.0", fillcolor="#fcf3eb"] ;
450 -> 454 ;
455 [label="HalfBath <= 0.5\nmse = 24000000.0\nsamples = 2\nvalue = 124000.0", fillcolor="#fcf0e8"] ;
445 -> 455 ;
456 [label="mse = 0.0\nsamples = 1\nvalue = 130000.0", fillcolor="#fcefe6"] ;
455 -> 456 ;
457 [label="mse = 0.0\nsamples = 1\nvalue = 120000.0", fillcolor="#fcf1e9"] ;
455 -> 457 ;
458 [label="YearBuilt <= 1940.5\nmse = 55916666.67\nsamples = 5\nvalue = 105000.0", fillcolor="#fdf3ed"] ;
438 -> 458 ;
459 [label="HalfBath <= 0.5\nmse = 4222222.22\nsamples = 3\nvalue = 112333.33", fillcolor="#fcf2eb"] ;
458 -> 459 ;
460 [label="mse = 0.0\nsamples = 1\nvalue = 115000.0", fillcolor="#fcf2ea"] ;
459 -> 460 ;
461 [label="GarageArea <= 412.0\nmse = 1000000.0\nsamples = 2\nvalue = 111000.0", fillcolor="#fcf2eb"] ;
459 -> 461 ;
462 [label="mse = 0.0\nsamples = 1\nvalue = 112000.0", fillcolor="#fcf2eb"] ;
461 -> 462 ;
463 [label="mse = 0.0\nsamples = 1\nvalue = 110000.0", fillcolor="#fcf3eb"] ;
461 -> 463 ;
464 [label="1stFlrSF <= 1000.0\nmse = 55555.56\nsamples = 2\nvalue = 97666.67", fillcolor="#fdf5ef"] ;
458 -> 464 ;
465 [label="mse = 0.0\nsamples = 1\nvalue = 97500.0", fillcolor="#fdf5ef"] ;
464 -> 465 ;
466 [label="mse = 0.0\nsamples = 1\nvalue = 98000.0", fillcolor="#fdf5ef"] ;
464 -> 466 ;
467 [label="MSSubClass <= 175.0\nmse = 281125069.04\nsamples = 33\nvalue = 128865.49", fillcolor="#fcefe6"] ;
431 -> 467 ;
468 [label="GrLivArea <= 1518.5\nmse = 232599465.01\nsamples = 31\nvalue = 130566.24", fillcolor="#fcefe6"] ;
467 -> 468 ;
469 [label="OpenPorchSF <= 53.0\nmse = 199013117.28\nsamples = 14\nvalue = 122527.78", fillcolor="#fcf0e8"] ;
468 -> 469 ;
470 [label="Id <= 1288.5\nmse = 83709960.94\nsamples = 12\nvalue = 118656.25", fillcolor="#fcf1e9"] ;
469 -> 470 ;
471 [label="TotalBsmtSF <= 812.5\nmse = 45546875.0\nsamples = 10\nvalue = 122625.0", fillcolor="#fcf0e8"] ;
470 -> 471 ;
472 [label="OverallCond <= 7.5\nmse = 23402500.0\nsamples = 8\nvalue = 120350.0", fillcolor="#fcf1e9"] ;
471 -> 472 ;
473 [label="MasVnrType_c <= 1.5\nmse = 8336734.69\nsamples = 5\nvalue = 117642.86", fillcolor="#fcf1e9"] ;
472 -> 473 ;
474 [label="YearRemodAdd <= 1988.5\nmse = 1388888.89\nsamples = 2\nvalue = 120833.33", fillcolor="#fcf1e8"] ;
473 -> 474 ;
475 [label="mse = 0.0\nsamples = 1\nvalue = 122500.0", fillcolor="#fcf0e8"] ;
474 -> 475 ;
476 [label="mse = 0.0\nsamples = 1\nvalue = 120000.0", fillcolor="#fcf1e9"] ;
474 -> 476 ;
477 [label="YearRemodAdd <= 1963.0\nmse = 187500.0\nsamples = 3\nvalue = 115250.0", fillcolor="#fcf2ea"] ;
473 -> 477 ;
478 [label="mse = 0.0\nsamples = 1\nvalue = 116000.0", fillcolor="#fcf1ea"] ;
477 -> 478 ;
479 [label="mse = 0.0\nsamples = 2\nvalue = 115000.0", fillcolor="#fcf2ea"] ;
477 -> 479 ;
480 [label="MoSold <= 6.5\nmse = 1555555.56\nsamples = 3\nvalue = 126666.67", fillcolor="#fcf0e7"] ;
472 -> 480 ;
481 [label="MSZoning_c <= 3.5\nmse = 250000.0\nsamples = 2\nvalue = 127500.0", fillcolor="#fcefe7"] ;
480 -> 481 ;
482 [label="mse = 0.0\nsamples = 1\nvalue = 127000.0", fillcolor="#fcf0e7"] ;
481 -> 482 ;
483 [label="mse = 0.0\nsamples = 1\nvalue = 128000.0", fillcolor="#fcefe6"] ;
481 -> 483 ;
484 [label="mse = 0.0\nsamples = 1\nvalue = 125000.0", fillcolor="#fcf0e7"] ;
480 -> 484 ;
485 [label="ExterQual_c <= 2.5\nmse = 1000000.0\nsamples = 2\nvalue = 134000.0", fillcolor="#fceee5"] ;
471 -> 485 ;
486 [label="mse = 0.0\nsamples = 1\nvalue = 133000.0", fillcolor="#fcefe5"] ;
485 -> 486 ;
487 [label="mse = 0.0\nsamples = 1\nvalue = 135000.0", fillcolor="#fceee5"] ;
485 -> 487 ;
488 [label="GrLivArea <= 1337.0\nmse = 9187500.0\nsamples = 2\nvalue = 106750.0", fillcolor="#fdf3ec"] ;
470 -> 488 ;
489 [label="mse = 0.0\nsamples = 1\nvalue = 105000.0", fillcolor="#fdf3ed"] ;
488 -> 489 ;
490 [label="mse = 0.0\nsamples = 1\nvalue = 112000.0", fillcolor="#fcf2eb"] ;
488 -> 490 ;
491 [label="HeatingQC_c <= 1.0\nmse = 42250000.0\nsamples = 2\nvalue = 153500.0", fillcolor="#fbebdf"] ;
469 -> 491 ;
492 [label="mse = 0.0\nsamples = 1\nvalue = 160000.0", fillcolor="#fbeade"] ;
491 -> 492 ;
493 [label="mse = 0.0\nsamples = 1\nvalue = 147000.0", fillcolor="#fbece1"] ;
491 -> 493 ;
494 [label="1stFlrSF <= 965.0\nmse = 168738308.08\nsamples = 17\nvalue = 136857.22", fillcolor="#fbeee4"] ;
468 -> 494 ;
495 [label="MasVnrType_c <= 1.5\nmse = 35857066.75\nsamples = 4\nvalue = 153233.5", fillcolor="#fbebdf"] ;
494 -> 495 ;
496 [label="mse = 0.0\nsamples = 1\nvalue = 144000.0", fillcolor="#fbede2"] ;
495 -> 496 ;
497 [label="TotalBsmtSF <= 851.5\nmse = 9917190.22\nsamples = 3\nvalue = 156311.33", fillcolor="#fbeadf"] ;
495 -> 497 ;
498 [label="LandContour_c <= 1.5\nmse = 935089.0\nsamples = 2\nvalue = 158467.0", fillcolor="#fbeade"] ;
497 -> 498 ;
499 [label="mse = 0.0\nsamples = 1\nvalue = 159434.0", fillcolor="#fbeade"] ;
498 -> 499 ;
500 [label="mse = 0.0\nsamples = 1\nvalue = 157500.0", fillcolor="#fbeade"] ;
498 -> 500 ;
501 [label="mse = 0.0\nsamples = 1\nvalue = 152000.0", fillcolor="#fbebe0"] ;
497 -> 501 ;
502 [label="ExterCond_c <= 1.5\nmse = 128367593.93\nsamples = 13\nvalue = 133409.58", fillcolor="#fceee5"] ;
494 -> 502 ;
503 [label="MSSubClass <= 55.0\nmse = 3491843.56\nsamples = 2\nvalue = 117642.67", fillcolor="#fcf1e9"] ;
502 -> 503 ;
504 [label="mse = 0.0\nsamples = 1\nvalue = 115000.0", fillcolor="#fcf2ea"] ;
503 -> 504 ;
505 [label="mse = 0.0\nsamples = 1\nvalue = 118964.0", fillcolor="#fcf1e9"] ;
503 -> 505 ;
506 [label="LotArea <= 37160.0\nmse = 96430450.23\nsamples = 11\nvalue = 136365.88", fillcolor="#fbeee4"] ;
502 -> 506 ;
507 [label="2ndFlrSF <= 612.5\nmse = 63138481.0\nsamples = 10\nvalue = 134790.27", fillcolor="#fceee5"] ;
506 -> 507 ;
508 [label="YearBuilt <= 1978.0\nmse = 34716876.64\nsamples = 8\nvalue = 136988.77", fillcolor="#fbeee4"] ;
507 -> 508 ;
509 [label="Exterior1st_c <= 13.5\nmse = 7933405.89\nsamples = 7\nvalue = 138499.67", fillcolor="#fbeee4"] ;
508 -> 509 ;
510 [label="MSZoning_c <= 2.5\nmse = 2019591.84\nsamples = 5\nvalue = 140542.86", fillcolor="#fbede3"] ;
509 -> 510 ;
511 [label="mse = 0.0\nsamples = 1\nvalue = 144000.0", fillcolor="#fbede2"] ;
510 -> 511 ;
512 [label="Exterior2nd_c <= 11.0\nmse = 32222.22\nsamples = 4\nvalue = 139966.67", fillcolor="#fbede3"] ;
510 -> 512 ;
513 [label="GarageYrBlt <= 1939.5\nmse = 6400.0\nsamples = 3\nvalue = 140040.0", fillcolor="#fbede3"] ;
512 -> 513 ;
514 [label="mse = 0.0\nsamples = 1\nvalue = 140200.0", fillcolor="#fbede3"] ;
513 -> 514 ;
515 [label="mse = 0.0\nsamples = 2\nvalue = 140000.0", fillcolor="#fbede3"] ;
513 -> 515 ;
516 [label="mse = 0.0\nsamples = 1\nvalue = 139600.0", fillcolor="#fbede3"] ;
512 -> 516 ;
517 [label="Foundation_c <= 0.5\nmse = 2185997.76\nsamples = 2\nvalue = 135639.2", fillcolor="#fceee4"] ;
509 -> 517 ;
518 [label="mse = 0.0\nsamples = 1\nvalue = 137450.0", fillcolor="#fbeee4"] ;
517 -> 518 ;
519 [label="mse = 0.0\nsamples = 1\nvalue = 134432.0", fillcolor="#fceee5"] ;
517 -> 519 ;
520 [label="mse = 0.0\nsamples = 1\nvalue = 118858.0", fillcolor="#fcf1e9"] ;
508 -> 520 ;
521 [label="HeatingQC_c <= 2.0\nmse = 12250000.0\nsamples = 2\nvalue = 120500.0", fillcolor="#fcf1e9"] ;
507 -> 521 ;
522 [label="mse = 0.0\nsamples = 1\nvalue = 117000.0", fillcolor="#fcf1ea"] ;
521 -> 522 ;
523 [label="mse = 0.0\nsamples = 1\nvalue = 124000.0", fillcolor="#fcf0e8"] ;
521 -> 523 ;
524 [label="mse = 0.0\nsamples = 1\nvalue = 160000.0", fillcolor="#fbeade"] ;
506 -> 524 ;
525 [label="Exterior2nd_c <= 10.0\nmse = 1000000.0\nsamples = 2\nvalue = 94000.0", fillcolor="#fdf5f0"] ;
467 -> 525 ;
526 [label="mse = 0.0\nsamples = 1\nvalue = 95000.0", fillcolor="#fdf5f0"] ;
525 -> 526 ;
527 [label="mse = 0.0\nsamples = 1\nvalue = 93000.0", fillcolor="#fdf6f0"] ;
525 -> 527 ;
528 [label="OverallCond <= 3.5\nmse = 453493888.17\nsamples = 26\nvalue = 138794.32", fillcolor="#fbede3"] ;
430 -> 528 ;
529 [label="GarageFinish_c <= 1.5\nmse = 555555555.56\nsamples = 2\nvalue = 93333.33", fillcolor="#fdf5f0"] ;
528 -> 529 ;
530 [label="mse = 0.0\nsamples = 1\nvalue = 110000.0", fillcolor="#fcf3eb"] ;
529 -> 530 ;
531 [label="mse = 0.0\nsamples = 1\nvalue = 60000.0", fillcolor="#fefbf9"] ;
529 -> 531 ;
532 [label="BsmtUnfSF <= 1279.5\nmse = 283738899.46\nsamples = 24\nvalue = 142120.73", fillcolor="#fbede3"] ;
528 -> 532 ;
533 [label="Functional_c <= 2.5\nmse = 281545189.04\nsamples = 16\nvalue = 150076.09", fillcolor="#fbebe0"] ;
532 -> 533 ;
534 [label="GarageArea <= 443.5\nmse = 198900555.56\nsamples = 3\nvalue = 116483.33", fillcolor="#fcf1ea"] ;
533 -> 534 ;
535 [label="Neighborhood_c <= 10.5\nmse = 56250000.0\nsamples = 2\nvalue = 107500.0", fillcolor="#fdf3ec"] ;
534 -> 535 ;
536 [label="mse = 0.0\nsamples = 1\nvalue = 100000.0", fillcolor="#fdf4ee"] ;
535 -> 536 ;
537 [label="mse = 0.0\nsamples = 1\nvalue = 115000.0", fillcolor="#fcf2ea"] ;
535 -> 537 ;
538 [label="mse = 0.0\nsamples = 1\nvalue = 134450.0", fillcolor="#fceee5"] ;
534 -> 538 ;
539 [label="BsmtFinType1_c <= 2.5\nmse = 99280275.0\nsamples = 13\nvalue = 155115.0", fillcolor="#fbebdf"] ;
533 -> 539 ;
540 [label="Id <= 273.0\nmse = 88500000.0\nsamples = 5\nvalue = 164500.0", fillcolor="#fae9dc"] ;
539 -> 540 ;
541 [label="GarageArea <= 513.5\nmse = 16000000.0\nsamples = 2\nvalue = 176500.0", fillcolor="#fae7d9"] ;
540 -> 541 ;
542 [label="mse = 0.0\nsamples = 1\nvalue = 172500.0", fillcolor="#fae8da"] ;
541 -> 542 ;
543 [label="mse = 0.0\nsamples = 1\nvalue = 180500.0", fillcolor="#fae6d8"] ;
541 -> 543 ;
544 [label="WoodDeckSF <= 32.0\nmse = 16750000.0\nsamples = 3\nvalue = 158500.0", fillcolor="#fbeade"] ;
540 -> 544 ;
545 [label="Condition1_c <= 1.5\nmse = 3555555.56\nsamples = 2\nvalue = 156333.33", fillcolor="#fbeadf"] ;
544 -> 545 ;
546 [label="mse = 0.0\nsamples = 1\nvalue = 159000.0", fillcolor="#fbeade"] ;
545 -> 546 ;
547 [label="mse = 0.0\nsamples = 1\nvalue = 155000.0", fillcolor="#fbebdf"] ;
545 -> 547 ;
548 [label="mse = 0.0\nsamples = 1\nvalue = 165000.0", fillcolor="#fae9dc"] ;
544 -> 548 ;
549 [label="YearRemodAdd <= 1967.5\nmse = 49974948.98\nsamples = 8\nvalue = 151092.86", fillcolor="#fbebe0"] ;
539 -> 549 ;
550 [label="MasVnrType_c <= 2.5\nmse = 361600.0\nsamples = 3\nvalue = 142980.0", fillcolor="#fbede2"] ;
549 -> 550 ;
551 [label="2ndFlrSF <= 339.0\nmse = 151875.0\nsamples = 2\nvalue = 143225.0", fillcolor="#fbede2"] ;
550 -> 551 ;
552 [label="mse = 0.0\nsamples = 1\nvalue = 143900.0", fillcolor="#fbede2"] ;
551 -> 552 ;
553 [label="mse = 0.0\nsamples = 1\nvalue = 143000.0", fillcolor="#fbede2"] ;
551 -> 553 ;
554 [label="mse = 0.0\nsamples = 1\nvalue = 142000.0", fillcolor="#fbede3"] ;
550 -> 554 ;
555 [label="TotRmsAbvGrd <= 6.5\nmse = 20657777.78\nsamples = 5\nvalue = 155600.0", fillcolor="#fbebdf"] ;
549 -> 555 ;
556 [label="LotConfig_c <= 2.0\nmse = 632653.06\nsamples = 3\nvalue = 153214.29", fillcolor="#fbebdf"] ;
555 -> 556 ;
557 [label="mse = 0.0\nsamples = 1\nvalue = 152000.0", fillcolor="#fbebe0"] ;
556 -> 557 ;
558 [label="SaleType_c <= 4.0\nmse = 60000.0\nsamples = 2\nvalue = 153700.0", fillcolor="#fbebdf"] ;
556 -> 558 ;
559 [label="mse = 0.0\nsamples = 1\nvalue = 153500.0", fillcolor="#fbebdf"] ;
558 -> 559 ;
560 [label="mse = 0.0\nsamples = 1\nvalue = 154000.0", fillcolor="#fbebdf"] ;
558 -> 560 ;
561 [label="GarageYrBlt <= 1952.0\nmse = 1102500.0\nsamples = 2\nvalue = 163950.0", fillcolor="#fae9dd"] ;
555 -> 561 ;
562 [label="mse = 0.0\nsamples = 1\nvalue = 162900.0", fillcolor="#fbe9dd"] ;
561 -> 562 ;
563 [label="mse = 0.0\nsamples = 1\nvalue = 165000.0", fillcolor="#fae9dc"] ;
561 -> 563 ;
564 [label="LotArea <= 12604.5\nmse = 102343580.25\nsamples = 8\nvalue = 131955.56", fillcolor="#fcefe5"] ;
532 -> 564 ;
565 [label="BsmtUnfSF <= 1620.0\nmse = 64208333.33\nsamples = 6\nvalue = 126500.0", fillcolor="#fcf0e7"] ;
564 -> 565 ;
566 [label="GarageYrBlt <= 1972.75\nmse = 13500000.0\nsamples = 4\nvalue = 122333.33", fillcolor="#fcf0e8"] ;
565 -> 566 ;
567 [label="BldgType_c <= 1.0\nmse = 2940000.0\nsamples = 2\nvalue = 125400.0", fillcolor="#fcf0e7"] ;
566 -> 567 ;
568 [label="mse = 0.0\nsamples = 1\nvalue = 127500.0", fillcolor="#fcefe7"] ;
567 -> 568 ;
569 [label="mse = 0.0\nsamples = 1\nvalue = 124000.0", fillcolor="#fcf0e8"] ;
567 -> 569 ;
570 [label="GarageArea <= 176.0\nmse = 250000.0\nsamples = 2\nvalue = 118500.0", fillcolor="#fcf1e9"] ;
566 -> 570 ;
571 [label="mse = 0.0\nsamples = 1\nvalue = 118000.0", fillcolor="#fcf1e9"] ;
570 -> 571 ;
572 [label="mse = 0.0\nsamples = 1\nvalue = 119000.0", fillcolor="#fcf1e9"] ;
570 -> 572 ;
573 [label="GarageYrBlt <= 1975.75\nmse = 8000000.0\nsamples = 2\nvalue = 139000.0", fillcolor="#fbede3"] ;
565 -> 573 ;
574 [label="mse = 0.0\nsamples = 1\nvalue = 135000.0", fillcolor="#fceee5"] ;
573 -> 574 ;
575 [label="mse = 0.0\nsamples = 1\nvalue = 141000.0", fillcolor="#fbede3"] ;
573 -> 575 ;
576 [label="Id <= 757.5\nmse = 35555.56\nsamples = 2\nvalue = 142866.67", fillcolor="#fbede2"] ;
564 -> 576 ;
577 [label="mse = 0.0\nsamples = 1\nvalue = 142600.0", fillcolor="#fbede2"] ;
576 -> 577 ;
578 [label="mse = 0.0\nsamples = 1\nvalue = 143000.0", fillcolor="#fbede2"] ;
576 -> 578 ;
579 [label="MSSubClass <= 55.0\nmse = 211903076.92\nsamples = 10\nvalue = 154800.0", fillcolor="#fbebdf"] ;
429 -> 579 ;
580 [label="TotalBsmtSF <= 1156.5\nmse = 118451875.0\nsamples = 7\nvalue = 145675.0", fillcolor="#fbece2"] ;
579 -> 580 ;
581 [label="YearBuilt <= 1944.5\nmse = 2562500.0\nsamples = 4\nvalue = 135250.0", fillcolor="#fceee4"] ;
580 -> 581 ;
582 [label="mse = 0.0\nsamples = 1\nvalue = 133000.0", fillcolor="#fcefe5"] ;
581 -> 582 ;
583 [label="Fireplaces <= 0.5\nmse = 1166666.67\nsamples = 3\nvalue = 136000.0", fillcolor="#fbeee4"] ;
581 -> 583 ;
584 [label="BedroomAbvGr <= 3.5\nmse = 62500.0\nsamples = 2\nvalue = 135250.0", fillcolor="#fceee4"] ;
583 -> 584 ;
585 [label="mse = 0.0\nsamples = 1\nvalue = 135500.0", fillcolor="#fceee4"] ;
584 -> 585 ;
586 [label="mse = 0.0\nsamples = 1\nvalue = 135000.0", fillcolor="#fceee5"] ;
584 -> 586 ;
587 [label="mse = 0.0\nsamples = 1\nvalue = 137500.0", fillcolor="#fbeee4"] ;
583 -> 587 ;
588 [label="BsmtUnfSF <= 959.0\nmse = 16980000.0\nsamples = 3\nvalue = 156100.0", fillcolor="#fbeadf"] ;
580 -> 588 ;
589 [label="BsmtFinType1_c <= 2.0\nmse = 5555555.56\nsamples = 2\nvalue = 158166.67", fillcolor="#fbeade"] ;
588 -> 589 ;
590 [label="mse = 0.0\nsamples = 1\nvalue = 156500.0", fillcolor="#fbeadf"] ;
589 -> 590 ;
591 [label="mse = 0.0\nsamples = 1\nvalue = 161500.0", fillcolor="#fbe9dd"] ;
589 -> 591 ;
592 [label="mse = 0.0\nsamples = 1\nvalue = 149900.0", fillcolor="#fbece0"] ;
588 -> 592 ;
593 [label="Foundation_c <= 1.5\nmse = 15040000.0\nsamples = 3\nvalue = 169400.0", fillcolor="#fae8db"] ;
579 -> 593 ;
594 [label="Neighborhood_c <= 19.5\nmse = 3555555.56\nsamples = 2\nvalue = 172333.33", fillcolor="#fae8da"] ;
593 -> 594 ;
595 [label="mse = 0.0\nsamples = 1\nvalue = 175000.0", fillcolor="#fae7d9"] ;
594 -> 595 ;
596 [label="mse = 0.0\nsamples = 1\nvalue = 171000.0", fillcolor="#fae8db"] ;
594 -> 596 ;
597 [label="mse = 0.0\nsamples = 1\nvalue = 165000.0", fillcolor="#fae9dc"] ;
593 -> 597 ;
598 [label="LotArea <= 9045.0\nmse = 59923216.16\nsamples = 6\nvalue = 174493.2", fillcolor="#fae7da"] ;
422 -> 598 ;
599 [label="MSZoning_c <= 2.0\nmse = 3796875.0\nsamples = 2\nvalue = 165625.0", fillcolor="#fae9dc"] ;
598 -> 599 ;
600 [label="mse = 0.0\nsamples = 1\nvalue = 164500.0", fillcolor="#fae9dc"] ;
599 -> 600 ;
601 [label="mse = 0.0\nsamples = 1\nvalue = 169000.0", fillcolor="#fae8db"] ;
599 -> 601 ;
602 [label="YrSold <= 2007.5\nmse = 9957475.56\nsamples = 4\nvalue = 180405.33", fillcolor="#fae6d8"] ;
598 -> 602 ;
603 [label="MSSubClass <= 40.0\nmse = 80656.0\nsamples = 2\nvalue = 176716.0", fillcolor="#fae7d9"] ;
602 -> 603 ;
604 [label="mse = 0.0\nsamples = 1\nvalue = 176432.0", fillcolor="#fae7d9"] ;
603 -> 604 ;
605 [label="mse = 0.0\nsamples = 1\nvalue = 177000.0", fillcolor="#fae7d9"] ;
603 -> 605 ;
606 [label="2ndFlrSF <= 339.0\nmse = 4687500.0\nsamples = 2\nvalue = 182250.0", fillcolor="#fae6d7"] ;
602 -> 606 ;
607 [label="mse = 0.0\nsamples = 1\nvalue = 186000.0", fillcolor="#fae5d6"] ;
606 -> 607 ;
608 [label="mse = 0.0\nsamples = 1\nvalue = 181000.0", fillcolor="#fae6d8"] ;
606 -> 608 ;
609 [label="MSZoning_c <= 3.5\nmse = 818401746.52\nsamples = 63\nvalue = 165141.77", fillcolor="#fae9dc"] ;
421 -> 609 ;
610 [label="LandContour_c <= 1.5\nmse = 602735375.69\nsamples = 54\nvalue = 172620.58", fillcolor="#fae8da"] ;
609 -> 610 ;
611 [label="2ndFlrSF <= 787.5\nmse = 688115714.29\nsamples = 9\nvalue = 196100.0", fillcolor="#f9e3d4"] ;
610 -> 611 ;
612 [label="LotFrontage <= 56.0\nmse = 298433333.33\nsamples = 4\nvalue = 172900.0", fillcolor="#fae7da"] ;
611 -> 612 ;
613 [label="mse = 0.0\nsamples = 1\nvalue = 135900.0", fillcolor="#fbeee4"] ;
612 -> 613 ;
614 [label="HalfBath <= 0.5\nmse = 29560000.0\nsamples = 3\nvalue = 180300.0", fillcolor="#fae6d8"] ;
612 -> 614 ;
615 [label="mse = 0.0\nsamples = 1\nvalue = 191000.0", fillcolor="#f9e4d5"] ;
614 -> 615 ;
616 [label="Id <= 806.0\nmse = 1171875.0\nsamples = 2\nvalue = 177625.0", fillcolor="#fae7d9"] ;
614 -> 616 ;
617 [label="mse = 0.0\nsamples = 1\nvalue = 179500.0", fillcolor="#fae6d8"] ;
616 -> 617 ;
618 [label="mse = 0.0\nsamples = 1\nvalue = 177000.0", fillcolor="#fae7d9"] ;
616 -> 618 ;
619 [label="KitchenQual_c <= 2.5\nmse = 273937500.0\nsamples = 5\nvalue = 213500.0", fillcolor="#f9e0cf"] ;
611 -> 619 ;
620 [label="Neighborhood_c <= 3.5\nmse = 7340000.0\nsamples = 3\nvalue = 201600.0", fillcolor="#f9e2d2"] ;
619 -> 620 ;
621 [label="mse = 0.0\nsamples = 1\nvalue = 207000.0", fillcolor="#f9e1d1"] ;
620 -> 621 ;
622 [label="MSZoning_c <= 2.5\nmse = 62500.0\nsamples = 2\nvalue = 200250.0", fillcolor="#f9e3d2"] ;
620 -> 622 ;
623 [label="mse = 0.0\nsamples = 1\nvalue = 200000.0", fillcolor="#f9e3d3"] ;
622 -> 623 ;
624 [label="mse = 0.0\nsamples = 1\nvalue = 200500.0", fillcolor="#f9e3d2"] ;
622 -> 624 ;
625 [label="BsmtFinType2_c <= 4.0\nmse = 88888888.89\nsamples = 2\nvalue = 233333.33", fillcolor="#f8ddc9"] ;
619 -> 625 ;
626 [label="mse = 0.0\nsamples = 1\nvalue = 220000.0", fillcolor="#f8dfcd"] ;
625 -> 626 ;
627 [label="mse = 0.0\nsamples = 1\nvalue = 240000.0", fillcolor="#f8dcc7"] ;
625 -> 627 ;
628 [label="GarageArea <= 297.5\nmse = 440033560.62\nsamples = 45\nvalue = 167563.48", fillcolor="#fae8dc"] ;
610 -> 628 ;
629 [label="MoSold <= 9.5\nmse = 166691709.11\nsamples = 6\nvalue = 130235.88", fillcolor="#fcefe6"] ;
628 -> 629 ;
630 [label="Exterior2nd_c <= 13.5\nmse = 2507106.81\nsamples = 5\nvalue = 137647.83", fillcolor="#fbeee4"] ;
629 -> 630 ;
631 [label="GarageYrBlt <= 1947.25\nmse = 250000.0\nsamples = 2\nvalue = 135500.0", fillcolor="#fceee4"] ;
630 -> 631 ;
632 [label="mse = 0.0\nsamples = 1\nvalue = 135000.0", fillcolor="#fceee5"] ;
631 -> 632 ;
633 [label="mse = 0.0\nsamples = 1\nvalue = 136000.0", fillcolor="#fbeee4"] ;
631 -> 633 ;
634 [label="GarageArea <= 210.0\nmse = 175769.19\nsamples = 3\nvalue = 138721.75", fillcolor="#fbede3"] ;
630 -> 634 ;
635 [label="Neighborhood_c <= 8.5\nmse = 2837.56\nsamples = 2\nvalue = 138962.33", fillcolor="#fbede3"] ;
634 -> 635 ;
636 [label="mse = 0.0\nsamples = 1\nvalue = 138887.0", fillcolor="#fbede3"] ;
635 -> 636 ;
637 [label="mse = 0.0\nsamples = 1\nvalue = 139000.0", fillcolor="#fbede3"] ;
635 -> 637 ;
638 [label="mse = 0.0\nsamples = 1\nvalue = 138000.0", fillcolor="#fbeee4"] ;
634 -> 638 ;
639 [label="mse = 0.0\nsamples = 1\nvalue = 108000.0", fillcolor="#fdf3ec"] ;
629 -> 639 ;
640 [label="BsmtUnfSF <= 127.0\nmse = 255392734.0\nsamples = 39\nvalue = 172802.44", fillcolor="#fae7da"] ;
628 -> 640 ;
641 [label="BsmtCond_c <= 2.0\nmse = 228352236.48\nsamples = 4\nvalue = 149857.38", fillcolor="#fbece0"] ;
640 -> 641 ;
642 [label="mse = 0.0\nsamples = 1\nvalue = 185000.0", fillcolor="#fae5d7"] ;
641 -> 642 ;
643 [label="RoofStyle_c <= 0.5\nmse = 59340663.43\nsamples = 3\nvalue = 144837.0", fillcolor="#fbece2"] ;
641 -> 643 ;
644 [label="mse = 0.0\nsamples = 1\nvalue = 129000.0", fillcolor="#fcefe6"] ;
643 -> 644 ;
645 [label="HalfBath <= 0.5\nmse = 20462052.25\nsamples = 2\nvalue = 147476.5", fillcolor="#fbece1"] ;
643 -> 645 ;
646 [label="mse = 0.0\nsamples = 1\nvalue = 142953.0", fillcolor="#fbede2"] ;
645 -> 646 ;
647 [label="mse = 0.0\nsamples = 1\nvalue = 152000.0", fillcolor="#fbebe0"] ;
645 -> 647 ;
648 [label="2ndFlrSF <= 877.0\nmse = 159818741.84\nsamples = 35\nvalue = 176548.57", fillcolor="#fae7d9"] ;
640 -> 648 ;
649 [label="GrLivArea <= 1408.0\nmse = 94278308.5\nsamples = 29\nvalue = 172559.5", fillcolor="#fae8da"] ;
648 -> 649 ;
650 [label="GrLivArea <= 1394.0\nmse = 18805150.0\nsamples = 4\nvalue = 155460.0", fillcolor="#fbebdf"] ;
649 -> 650 ;
651 [label="GarageArea <= 369.5\nmse = 2030625.0\nsamples = 2\nvalue = 160325.0", fillcolor="#fbeade"] ;
650 -> 651 ;
652 [label="mse = 0.0\nsamples = 1\nvalue = 161750.0", fillcolor="#fbe9dd"] ;
651 -> 652 ;
653 [label="mse = 0.0\nsamples = 1\nvalue = 158900.0", fillcolor="#fbeade"] ;
651 -> 653 ;
654 [label="MasVnrArea <= 101.5\nmse = 3690138.89\nsamples = 2\nvalue = 152216.67", fillcolor="#fbebe0"] ;
650 -> 654 ;
655 [label="mse = 0.0\nsamples = 1\nvalue = 153575.0", fillcolor="#fbebdf"] ;
654 -> 655 ;
656 [label="mse = 0.0\nsamples = 1\nvalue = 149500.0", fillcolor="#fbece1"] ;
654 -> 656 ;
657 [label="Fence_c <= 2.0\nmse = 57322571.92\nsamples = 25\nvalue = 175002.29", fillcolor="#fae7d9"] ;
649 -> 657 ;
658 [label="SaleCondition_c <= 2.0\nmse = 10888888.89\nsamples = 2\nvalue = 160333.33", fillcolor="#fbeade"] ;
657 -> 658 ;
659 [label="mse = 0.0\nsamples = 1\nvalue = 158000.0", fillcolor="#fbeade"] ;
658 -> 659 ;
660 [label="mse = 0.0\nsamples = 1\nvalue = 165000.0", fillcolor="#fae9dc"] ;
658 -> 660 ;
661 [label="OpenPorchSF <= 43.0\nmse = 39611562.5\nsamples = 23\nvalue = 176377.5", fillcolor="#fae7d9"] ;
657 -> 661 ;
662 [label="SaleCondition_c <= 4.5\nmse = 23047787.65\nsamples = 13\nvalue = 172998.89", fillcolor="#fae7da"] ;
661 -> 662 ;
663 [label="TotalBsmtSF <= 927.0\nmse = 14515625.0\nsamples = 12\nvalue = 174125.0", fillcolor="#fae7da"] ;
662 -> 663 ;
664 [label="BsmtUnfSF <= 773.0\nmse = 4700255.1\nsamples = 10\nvalue = 173178.57", fillcolor="#fae7da"] ;
663 -> 664 ;
665 [label="BsmtFinSF1 <= 382.5\nmse = 1185763.89\nsamples = 8\nvalue = 173958.33", fillcolor="#fae7da"] ;
664 -> 665 ;
666 [label="GarageFinish_c <= 0.5\nmse = 433593.75\nsamples = 6\nvalue = 173312.5", fillcolor="#fae7da"] ;
665 -> 666 ;
667 [label="BsmtFinType1_c <= 3.5\nmse = 60000.0\nsamples = 4\nvalue = 173800.0", fillcolor="#fae7da"] ;
666 -> 667 ;
668 [label="mse = 0.0\nsamples = 1\nvalue = 173500.0", fillcolor="#fae7da"] ;
667 -> 668 ;
669 [label="mse = 0.0\nsamples = 3\nvalue = 174000.0", fillcolor="#fae7da"] ;
667 -> 669 ;
670 [label="mse = 0.0\nsamples = 2\nvalue = 172500.0", fillcolor="#fae8da"] ;
666 -> 670 ;
671 [label="LotConfig_c <= 2.0\nmse = 187500.0\nsamples = 2\nvalue = 175250.0", fillcolor="#fae7d9"] ;
665 -> 671 ;
672 [label="mse = 0.0\nsamples = 1\nvalue = 176000.0", fillcolor="#fae7d9"] ;
671 -> 672 ;
673 [label="mse = 0.0\nsamples = 1\nvalue = 175000.0", fillcolor="#fae7d9"] ;
671 -> 673 ;
674 [label="Exterior2nd_c <= 11.5\nmse = 250000.0\nsamples = 2\nvalue = 168500.0", fillcolor="#fae8db"] ;
664 -> 674 ;
675 [label="mse = 0.0\nsamples = 1\nvalue = 168000.0", fillcolor="#fae8db"] ;
674 -> 675 ;
676 [label="mse = 0.0\nsamples = 1\nvalue = 169000.0", fillcolor="#fae8db"] ;
674 -> 676 ;
677 [label="GarageYrBlt <= 1999.5\nmse = 33062500.0\nsamples = 2\nvalue = 180750.0", fillcolor="#fae6d8"] ;
663 -> 677 ;
678 [label="mse = 0.0\nsamples = 1\nvalue = 175000.0", fillcolor="#fae7d9"] ;
677 -> 678 ;
679 [label="mse = 0.0\nsamples = 1\nvalue = 186500.0", fillcolor="#fae5d6"] ;
677 -> 679 ;
680 [label="mse = 0.0\nsamples = 1\nvalue = 163990.0", fillcolor="#fae9dd"] ;
662 -> 680 ;
681 [label="OverallQual <= 5.5\nmse = 27361683.67\nsamples = 10\nvalue = 180721.43", fillcolor="#fae6d8"] ;
661 -> 681 ;
682 [label="mse = 0.0\nsamples = 1\nvalue = 197500.0", fillcolor="#f9e3d3"] ;
681 -> 682 ;
683 [label="BsmtUnfSF <= 372.0\nmse = 6145207.1\nsamples = 9\nvalue = 179430.77", fillcolor="#fae6d8"] ;
681 -> 683 ;
684 [label="Exterior1st_c <= 9.0\nmse = 4557600.0\nsamples = 3\nvalue = 181580.0", fillcolor="#fae6d8"] ;
683 -> 684 ;
685 [label="mse = 0.0\nsamples = 1\nvalue = 179900.0", fillcolor="#fae6d8"] ;
684 -> 685 ;
686 [label="GrLivArea <= 1489.5\nmse = 810000.0\nsamples = 2\nvalue = 184100.0", fillcolor="#fae6d7"] ;
684 -> 686 ;
687 [label="mse = 0.0\nsamples = 1\nvalue = 185000.0", fillcolor="#fae5d7"] ;
686 -> 687 ;
688 [label="mse = 0.0\nsamples = 1\nvalue = 183200.0", fillcolor="#fae6d7"] ;
686 -> 688 ;
689 [label="LotArea <= 7608.0\nmse = 2446093.75\nsamples = 6\nvalue = 178087.5", fillcolor="#fae7d9"] ;
683 -> 689 ;
690 [label="mse = 0.0\nsamples = 1\nvalue = 175900.0", fillcolor="#fae7d9"] ;
689 -> 690 ;
691 [label="MoSold <= 9.0\nmse = 1134722.22\nsamples = 5\nvalue = 178816.67", fillcolor="#fae6d8"] ;
689 -> 691 ;
692 [label="Condition1_c <= 4.0\nmse = 217600.0\nsamples = 4\nvalue = 178380.0", fillcolor="#fae7d9"] ;
691 -> 692 ;
693 [label="mse = 0.0\nsamples = 2\nvalue = 178000.0", fillcolor="#fae7d9"] ;
692 -> 693 ;
694 [label="LotFrontage <= 62.5\nmse = 2500.0\nsamples = 2\nvalue = 178950.0", fillcolor="#fae6d8"] ;
692 -> 694 ;
695 [label="mse = 0.0\nsamples = 1\nvalue = 179000.0", fillcolor="#fae6d8"] ;
694 -> 695 ;
696 [label="mse = 0.0\nsamples = 1\nvalue = 178900.0", fillcolor="#fae6d8"] ;
694 -> 696 ;
697 [label="mse = 0.0\nsamples = 1\nvalue = 181000.0", fillcolor="#fae6d8"] ;
691 -> 697 ;
698 [label="BsmtExposure_c <= 2.5\nmse = 66061728.4\nsamples = 6\nvalue = 194277.78", fillcolor="#f9e4d4"] ;
648 -> 698 ;
699 [label="mse = 0.0\nsamples = 1\nvalue = 214000.0", fillcolor="#f9e0cf"] ;
698 -> 699 ;
700 [label="GrLivArea <= 1870.0\nmse = 19621093.75\nsamples = 5\nvalue = 191812.5", fillcolor="#f9e4d5"] ;
698 -> 700 ;
701 [label="GarageYrBlt <= 1994.0\nmse = 187500.0\nsamples = 2\nvalue = 187750.0", fillcolor="#fae5d6"] ;
700 -> 701 ;
702 [label="mse = 0.0\nsamples = 1\nvalue = 187000.0", fillcolor="#fae5d6"] ;
701 -> 702 ;
703 [label="mse = 0.0\nsamples = 1\nvalue = 188000.0", fillcolor="#fae5d6"] ;
701 -> 703 ;
704 [label="HeatingQC_c <= 2.0\nmse = 6046875.0\nsamples = 3\nvalue = 195875.0", fillcolor="#f9e3d4"] ;
700 -> 704 ;
705 [label="mse = 0.0\nsamples = 1\nvalue = 200000.0", fillcolor="#f9e3d3"] ;
704 -> 705 ;
706 [label="YearRemodAdd <= 1972.0\nmse = 500000.0\nsamples = 2\nvalue = 194500.0", fillcolor="#f9e4d4"] ;
704 -> 706 ;
707 [label="mse = 0.0\nsamples = 1\nvalue = 193500.0", fillcolor="#f9e4d4"] ;
706 -> 707 ;
708 [label="mse = 0.0\nsamples = 1\nvalue = 195000.0", fillcolor="#f9e4d4"] ;
706 -> 708 ;
709 [label="LotConfig_c <= 2.0\nmse = 108217155.56\nsamples = 9\nvalue = 125753.33", fillcolor="#fcf0e7"] ;
609 -> 709 ;
710 [label="Exterior2nd_c <= 13.5\nmse = 2222.22\nsamples = 2\nvalue = 107433.33", fillcolor="#fdf3ec"] ;
709 -> 710 ;
711 [label="mse = 0.0\nsamples = 1\nvalue = 107400.0", fillcolor="#fdf3ec"] ;
710 -> 711 ;
712 [label="mse = 0.0\nsamples = 1\nvalue = 107500.0", fillcolor="#fdf3ec"] ;
710 -> 712 ;
713 [label="OverallCond <= 6.5\nmse = 30388888.89\nsamples = 7\nvalue = 130333.33", fillcolor="#fcefe6"] ;
709 -> 713 ;
714 [label="2ndFlrSF <= 1016.0\nmse = 16984375.0\nsamples = 5\nvalue = 127375.0", fillcolor="#fcefe7"] ;
713 -> 714 ;
715 [label="BedroomAbvGr <= 3.5\nmse = 3489795.92\nsamples = 4\nvalue = 128785.71", fillcolor="#fcefe6"] ;
714 -> 715 ;
716 [label="Exterior1st_c <= 12.5\nmse = 500000.0\nsamples = 3\nvalue = 129500.0", fillcolor="#fcefe6"] ;
715 -> 716 ;
717 [label="CentralAir_c <= 0.5\nmse = 60000.0\nsamples = 2\nvalue = 129800.0", fillcolor="#fcefe6"] ;
716 -> 717 ;
718 [label="mse = 0.0\nsamples = 1\nvalue = 129500.0", fillcolor="#fcefe6"] ;
717 -> 718 ;
719 [label="mse = 0.0\nsamples = 1\nvalue = 130000.0", fillcolor="#fcefe6"] ;
717 -> 719 ;
720 [label="mse = 0.0\nsamples = 1\nvalue = 128000.0", fillcolor="#fcefe6"] ;
716 -> 720 ;
721 [label="mse = 0.0\nsamples = 1\nvalue = 124500.0", fillcolor="#fcf0e7"] ;
715 -> 721 ;
722 [label="mse = 0.0\nsamples = 1\nvalue = 117500.0", fillcolor="#fcf1e9"] ;
714 -> 722 ;
723 [label="TotRmsAbvGrd <= 7.5\nmse = 4687500.0\nsamples = 2\nvalue = 136250.0", fillcolor="#fbeee4"] ;
713 -> 723 ;
724 [label="mse = 0.0\nsamples = 1\nvalue = 135000.0", fillcolor="#fceee5"] ;
723 -> 724 ;
725 [label="mse = 0.0\nsamples = 1\nvalue = 140000.0", fillcolor="#fbede3"] ;
723 -> 725 ;
726 [label="GrLivArea <= 1557.5\nmse = 1089604086.25\nsamples = 99\nvalue = 177582.6", fillcolor="#fae7d9"] ;
420 -> 726 ;
727 [label="KitchenQual_c <= 2.5\nmse = 437859320.42\nsamples = 54\nvalue = 162298.24", fillcolor="#fbe9dd"] ;
726 -> 727 ;
728 [label="1stFlrSF <= 1261.5\nmse = 333110956.63\nsamples = 20\nvalue = 180839.29", fillcolor="#fae6d8"] ;
727 -> 728 ;
729 [label="HeatingQC_c <= 0.5\nmse = 252172222.22\nsamples = 6\nvalue = 157266.67", fillcolor="#fbeade"] ;
728 -> 729 ;
730 [label="HalfBath <= 0.5\nmse = 52562500.0\nsamples = 2\nvalue = 137750.0", fillcolor="#fbeee4"] ;
729 -> 730 ;
731 [label="mse = 0.0\nsamples = 1\nvalue = 145000.0", fillcolor="#fbece2"] ;
730 -> 731 ;
732 [label="mse = 0.0\nsamples = 1\nvalue = 130500.0", fillcolor="#fcefe6"] ;
730 -> 732 ;
733 [label="HeatingQC_c <= 3.0\nmse = 66301875.0\nsamples = 4\nvalue = 167025.0", fillcolor="#fae9dc"] ;
729 -> 733 ;
734 [label="GarageCars <= 1.5\nmse = 24135555.56\nsamples = 3\nvalue = 171033.33", fillcolor="#fae8db"] ;
733 -> 734 ;
735 [label="mse = 0.0\nsamples = 1\nvalue = 177500.0", fillcolor="#fae7d9"] ;
734 -> 735 ;
736 [label="LotArea <= 9242.5\nmse = 4840000.0\nsamples = 2\nvalue = 167800.0", fillcolor="#fae8db"] ;
734 -> 736 ;
737 [label="mse = 0.0\nsamples = 1\nvalue = 165600.0", fillcolor="#fae9dc"] ;
736 -> 737 ;
738 [label="mse = 0.0\nsamples = 1\nvalue = 170000.0", fillcolor="#fae8db"] ;
736 -> 738 ;
739 [label="mse = 0.0\nsamples = 1\nvalue = 155000.0", fillcolor="#fbebdf"] ;
733 -> 739 ;
740 [label="1stFlrSF <= 1466.5\nmse = 162308533.06\nsamples = 14\nvalue = 187268.18", fillcolor="#fae5d6"] ;
728 -> 740 ;
741 [label="YearRemodAdd <= 2001.5\nmse = 104348000.0\nsamples = 12\nvalue = 184700.0", fillcolor="#fae5d7"] ;
740 -> 741 ;
742 [label="BsmtFinSF2 <= 384.0\nmse = 28984152.25\nsamples = 9\nvalue = 181323.53", fillcolor="#fae6d8"] ;
741 -> 742 ;
743 [label="YearBuilt <= 1986.5\nmse = 8566222.22\nsamples = 8\nvalue = 179633.33", fillcolor="#fae6d8"] ;
742 -> 743 ;
744 [label="LotConfig_c <= 2.5\nmse = 1556033.06\nsamples = 5\nvalue = 181118.18", fillcolor="#fae6d8"] ;
743 -> 744 ;
745 [label="BsmtHalfBath <= 0.5\nmse = 187500.0\nsamples = 2\nvalue = 182650.0", fillcolor="#fae6d7"] ;
744 -> 745 ;
746 [label="mse = 0.0\nsamples = 1\nvalue = 182900.0", fillcolor="#fae6d7"] ;
745 -> 746 ;
747 [label="mse = 0.0\nsamples = 1\nvalue = 181900.0", fillcolor="#fae6d8"] ;
745 -> 747 ;
748 [label="MasVnrArea <= 92.0\nmse = 231020.41\nsamples = 3\nvalue = 180242.86", fillcolor="#fae6d8"] ;
744 -> 748 ;
749 [label="OverallCond <= 6.5\nmse = 2400.0\nsamples = 2\nvalue = 179940.0", fillcolor="#fae6d8"] ;
748 -> 749 ;
750 [label="mse = 0.0\nsamples = 1\nvalue = 180000.0", fillcolor="#fae6d8"] ;
749 -> 750 ;
751 [label="mse = 0.0\nsamples = 1\nvalue = 179900.0", fillcolor="#fae6d8"] ;
749 -> 751 ;
752 [label="mse = 0.0\nsamples = 1\nvalue = 181000.0", fillcolor="#fae6d8"] ;
748 -> 752 ;
753 [label="OpenPorchSF <= 25.5\nmse = 5107500.0\nsamples = 3\nvalue = 175550.0", fillcolor="#fae7d9"] ;
743 -> 753 ;
754 [label="FireplaceQu_c <= 3.0\nmse = 888888.89\nsamples = 2\nvalue = 174333.33", fillcolor="#fae7da"] ;
753 -> 754 ;
755 [label="mse = 0.0\nsamples = 1\nvalue = 173000.0", fillcolor="#fae7da"] ;
754 -> 755 ;
756 [label="mse = 0.0\nsamples = 1\nvalue = 175000.0", fillcolor="#fae7d9"] ;
754 -> 756 ;
757 [label="mse = 0.0\nsamples = 1\nvalue = 179200.0", fillcolor="#fae6d8"] ;
753 -> 757 ;
758 [label="mse = 0.0\nsamples = 1\nvalue = 194000.0", fillcolor="#f9e4d4"] ;
742 -> 758 ;
759 [label="LotArea <= 10064.0\nmse = 100722222.22\nsamples = 3\nvalue = 203833.33", fillcolor="#f9e2d1"] ;
741 -> 759 ;
760 [label="YrSold <= 2009.5\nmse = 562500.0\nsamples = 2\nvalue = 196750.0", fillcolor="#f9e3d3"] ;
759 -> 760 ;
761 [label="mse = 0.0\nsamples = 1\nvalue = 196000.0", fillcolor="#f9e3d4"] ;
760 -> 761 ;
762 [label="mse = 0.0\nsamples = 1\nvalue = 197500.0", fillcolor="#f9e3d3"] ;
760 -> 762 ;
763 [label="mse = 0.0\nsamples = 1\nvalue = 218000.0", fillcolor="#f9e0ce"] ;
759 -> 763 ;
764 [label="Id <= 615.0\nmse = 16402500.0\nsamples = 2\nvalue = 212950.0", fillcolor="#f9e0cf"] ;
740 -> 764 ;
765 [label="mse = 0.0\nsamples = 1\nvalue = 208900.0", fillcolor="#f9e1d0"] ;
764 -> 765 ;
766 [label="mse = 0.0\nsamples = 1\nvalue = 217000.0", fillcolor="#f9e0ce"] ;
764 -> 766 ;
767 [label="TotalBsmtSF <= 1115.5\nmse = 237491354.26\nsamples = 34\nvalue = 153190.35", fillcolor="#fbebdf"] ;
727 -> 767 ;
768 [label="YearRemodAdd <= 1973.0\nmse = 143268379.5\nsamples = 12\nvalue = 137113.16", fillcolor="#fbeee4"] ;
767 -> 768 ;
769 [label="YearBuilt <= 1930.0\nmse = 27206523.44\nsamples = 5\nvalue = 125493.75", fillcolor="#fcf0e7"] ;
768 -> 769 ;
770 [label="mse = 0.0\nsamples = 1\nvalue = 112000.0", fillcolor="#fcf2eb"] ;
769 -> 770 ;
771 [label="Neighborhood_c <= 2.5\nmse = 1365612.24\nsamples = 4\nvalue = 127421.43", fillcolor="#fcefe7"] ;
769 -> 771 ;
772 [label="mse = 0.0\nsamples = 1\nvalue = 125000.0", fillcolor="#fcf0e7"] ;
771 -> 772 ;
773 [label="Exterior1st_c <= 5.5\nmse = 453125.0\nsamples = 3\nvalue = 127825.0", fillcolor="#fcefe7"] ;
771 -> 773 ;
774 [label="mse = 0.0\nsamples = 1\nvalue = 127000.0", fillcolor="#fcf0e7"] ;
773 -> 774 ;
775 [label="2ndFlrSF <= 283.5\nmse = 169218.75\nsamples = 2\nvalue = 128237.5", fillcolor="#fcefe6"] ;
773 -> 775 ;
776 [label="mse = 0.0\nsamples = 1\nvalue = 128950.0", fillcolor="#fcefe6"] ;
775 -> 776 ;
777 [label="mse = 0.0\nsamples = 1\nvalue = 128000.0", fillcolor="#fcefe6"] ;
775 -> 777 ;
778 [label="BsmtFinType2_c <= 4.5\nmse = 58076859.5\nsamples = 7\nvalue = 145563.64", fillcolor="#fbece2"] ;
768 -> 778 ;
779 [label="HeatingQC_c <= 2.0\nmse = 31687500.0\nsamples = 2\nvalue = 136750.0", fillcolor="#fbeee4"] ;
778 -> 779 ;
780 [label="mse = 0.0\nsamples = 1\nvalue = 127000.0", fillcolor="#fcf0e7"] ;
779 -> 780 ;
781 [label="mse = 0.0\nsamples = 1\nvalue = 140000.0", fillcolor="#fbede3"] ;
779 -> 781 ;
782 [label="LotShape_c <= 1.5\nmse = 3402857.14\nsamples = 5\nvalue = 150600.0", fillcolor="#fbebe0"] ;
778 -> 782 ;
783 [label="GrLivArea <= 1259.0\nmse = 1000000.0\nsamples = 2\nvalue = 152000.0", fillcolor="#fbebe0"] ;
782 -> 783 ;
784 [label="mse = 0.0\nsamples = 1\nvalue = 151000.0", fillcolor="#fbebe0"] ;
783 -> 784 ;
785 [label="mse = 0.0\nsamples = 1\nvalue = 153000.0", fillcolor="#fbebe0"] ;
783 -> 785 ;
786 [label="Id <= 1319.5\nmse = 508888.89\nsamples = 3\nvalue = 148733.33", fillcolor="#fbece1"] ;
782 -> 786 ;
787 [label="GarageArea <= 449.5\nmse = 62500.0\nsamples = 2\nvalue = 148250.0", fillcolor="#fbece1"] ;
786 -> 787 ;
788 [label="mse = 0.0\nsamples = 1\nvalue = 148500.0", fillcolor="#fbece1"] ;
787 -> 788 ;
789 [label="mse = 0.0\nsamples = 1\nvalue = 148000.0", fillcolor="#fbece1"] ;
787 -> 789 ;
790 [label="mse = 0.0\nsamples = 1\nvalue = 149700.0", fillcolor="#fbece0"] ;
786 -> 790 ;
791 [label="BsmtFinType1_c <= 0.5\nmse = 90745741.0\nsamples = 22\nvalue = 161228.95", fillcolor="#fbeadd"] ;
767 -> 791 ;
792 [label="BedroomAbvGr <= 2.5\nmse = 26127755.1\nsamples = 4\nvalue = 172771.43", fillcolor="#fae8da"] ;
791 -> 792 ;
793 [label="Id <= 949.0\nmse = 705600.0\nsamples = 2\nvalue = 169580.0", fillcolor="#fae8db"] ;
792 -> 793 ;
794 [label="mse = 0.0\nsamples = 1\nvalue = 170000.0", fillcolor="#fae8db"] ;
793 -> 794 ;
795 [label="mse = 0.0\nsamples = 1\nvalue = 167900.0", fillcolor="#fae8db"] ;
793 -> 795 ;
796 [label="MasVnrArea <= 80.0\nmse = 562500.0\nsamples = 2\nvalue = 180750.0", fillcolor="#fae6d8"] ;
792 -> 796 ;
797 [label="mse = 0.0\nsamples = 1\nvalue = 181500.0", fillcolor="#fae6d8"] ;
796 -> 797 ;
798 [label="mse = 0.0\nsamples = 1\nvalue = 180000.0", fillcolor="#fae6d8"] ;
796 -> 798 ;
799 [label="Fence_c <= 3.0\nmse = 68459812.7\nsamples = 18\nvalue = 158622.58", fillcolor="#fbeade"] ;
791 -> 799 ;
800 [label="LotFrontage <= 101.0\nmse = 33546875.0\nsamples = 5\nvalue = 167875.0", fillcolor="#fae8db"] ;
799 -> 800 ;
801 [label="FireplaceQu_c <= 1.5\nmse = 15388888.89\nsamples = 4\nvalue = 165166.67", fillcolor="#fae9dc"] ;
800 -> 801 ;
802 [label="mse = 0.0\nsamples = 1\nvalue = 157000.0", fillcolor="#fbeade"] ;
801 -> 802 ;
803 [label="YearRemodAdd <= 1959.0\nmse = 2460000.0\nsamples = 3\nvalue = 166800.0", fillcolor="#fae9dc"] ;
801 -> 803 ;
804 [label="mse = 0.0\nsamples = 1\nvalue = 165000.0", fillcolor="#fae9dc"] ;
803 -> 804 ;
805 [label="BsmtFinType1_c <= 1.5\nmse = 500000.0\nsamples = 2\nvalue = 168000.0", fillcolor="#fae8db"] ;
803 -> 805 ;
806 [label="mse = 0.0\nsamples = 1\nvalue = 167000.0", fillcolor="#fae9dc"] ;
805 -> 806 ;
807 [label="mse = 0.0\nsamples = 1\nvalue = 168500.0", fillcolor="#fae8db"] ;
805 -> 807 ;
808 [label="mse = 0.0\nsamples = 1\nvalue = 176000.0", fillcolor="#fae7d9"] ;
800 -> 808 ;
809 [label="YearRemodAdd <= 1998.5\nmse = 40469981.1\nsamples = 13\nvalue = 155404.35", fillcolor="#fbebdf"] ;
799 -> 809 ;
810 [label="BsmtUnfSF <= 545.5\nmse = 30657275.0\nsamples = 12\nvalue = 153965.0", fillcolor="#fbebdf"] ;
809 -> 810 ;
811 [label="Electrical_c <= 2.0\nmse = 27302295.92\nsamples = 9\nvalue = 152035.71", fillcolor="#fbebe0"] ;
810 -> 811 ;
812 [label="mse = 0.0\nsamples = 1\nvalue = 166000.0", fillcolor="#fae9dc"] ;
811 -> 812 ;
813 [label="BsmtUnfSF <= 371.0\nmse = 13248520.71\nsamples = 8\nvalue = 150961.54", fillcolor="#fbebe0"] ;
811 -> 813 ;
814 [label="MSSubClass <= 155.0\nmse = 3125000.0\nsamples = 5\nvalue = 153250.0", fillcolor="#fbebdf"] ;
813 -> 814 ;
815 [label="MasVnrArea <= 82.0\nmse = 1275510.2\nsamples = 4\nvalue = 152714.29", fillcolor="#fbebe0"] ;
814 -> 815 ;
816 [label="mse = 0.0\nsamples = 1\nvalue = 150000.0", fillcolor="#fbece0"] ;
815 -> 816 ;
817 [label="LotArea <= 6516.0\nmse = 55555.56\nsamples = 3\nvalue = 153166.67", fillcolor="#fbebdf"] ;
815 -> 817 ;
818 [label="mse = 0.0\nsamples = 1\nvalue = 153500.0", fillcolor="#fbebdf"] ;
817 -> 818 ;
819 [label="mse = 0.0\nsamples = 2\nvalue = 153000.0", fillcolor="#fbebe0"] ;
817 -> 819 ;
820 [label="mse = 0.0\nsamples = 1\nvalue = 157000.0", fillcolor="#fbeade"] ;
814 -> 820 ;
821 [label="OverallCond <= 4.5\nmse = 7660000.0\nsamples = 3\nvalue = 147300.0", fillcolor="#fbece1"] ;
813 -> 821 ;
822 [label="mse = 0.0\nsamples = 1\nvalue = 149500.0", fillcolor="#fbece1"] ;
821 -> 822 ;
823 [label="OverallCond <= 5.5\nmse = 1000000.0\nsamples = 2\nvalue = 144000.0", fillcolor="#fbede2"] ;
821 -> 823 ;
824 [label="mse = 0.0\nsamples = 1\nvalue = 143000.0", fillcolor="#fbede2"] ;
823 -> 824 ;
825 [label="mse = 0.0\nsamples = 1\nvalue = 145000.0", fillcolor="#fbece2"] ;
823 -> 825 ;
826 [label="BsmtFinSF1 <= 634.0\nmse = 9535555.56\nsamples = 3\nvalue = 158466.67", fillcolor="#fbeade"] ;
810 -> 826 ;
827 [label="LotShape_c <= 1.5\nmse = 2102500.0\nsamples = 2\nvalue = 156450.0", fillcolor="#fbeadf"] ;
826 -> 827 ;
828 [label="mse = 0.0\nsamples = 1\nvalue = 155000.0", fillcolor="#fbebdf"] ;
827 -> 828 ;
829 [label="mse = 0.0\nsamples = 1\nvalue = 157900.0", fillcolor="#fbeade"] ;
827 -> 829 ;
830 [label="mse = 0.0\nsamples = 1\nvalue = 162500.0", fillcolor="#fbe9dd"] ;
826 -> 830 ;
831 [label="mse = 0.0\nsamples = 1\nvalue = 165000.0", fillcolor="#fae9dc"] ;
809 -> 831 ;
832 [label="Neighborhood_c <= 7.5\nmse = 1265036081.1\nsamples = 45\nvalue = 194676.95", fillcolor="#f9e4d4"] ;
726 -> 832 ;
833 [label="GarageYrBlt <= 1961.5\nmse = 534426961.61\nsamples = 13\nvalue = 225874.92", fillcolor="#f8decb"] ;
832 -> 833 ;
834 [label="1stFlrSF <= 1303.0\nmse = 181648760.33\nsamples = 6\nvalue = 246818.18", fillcolor="#f7dac6"] ;
833 -> 834 ;
835 [label="BsmtFinSF1 <= 553.0\nmse = 52440000.0\nsamples = 3\nvalue = 233100.0", fillcolor="#f8ddc9"] ;
834 -> 835 ;
836 [label="mse = 0.0\nsamples = 1\nvalue = 239000.0", fillcolor="#f8dcc8"] ;
835 -> 836 ;
837 [label="ExterCond_c <= 3.0\nmse = 562500.0\nsamples = 2\nvalue = 224250.0", fillcolor="#f8decc"] ;
835 -> 837 ;
838 [label="mse = 0.0\nsamples = 1\nvalue = 225000.0", fillcolor="#f8decc"] ;
837 -> 838 ;
839 [label="mse = 0.0\nsamples = 1\nvalue = 223500.0", fillcolor="#f8dfcc"] ;
837 -> 839 ;
840 [label="Exterior2nd_c <= 12.0\nmse = 1812500.0\nsamples = 3\nvalue = 258250.0", fillcolor="#f7d8c2"] ;
834 -> 840 ;
841 [label="LotShape_c <= 1.5\nmse = 500000.0\nsamples = 2\nvalue = 257000.0", fillcolor="#f7d9c3"] ;
840 -> 841 ;
842 [label="mse = 0.0\nsamples = 1\nvalue = 256000.0", fillcolor="#f7d9c3"] ;
841 -> 842 ;
843 [label="mse = 0.0\nsamples = 1\nvalue = 257500.0", fillcolor="#f7d9c3"] ;
841 -> 843 ;
844 [label="mse = 0.0\nsamples = 1\nvalue = 259500.0", fillcolor="#f7d8c2"] ;
840 -> 844 ;
845 [label="GrLivArea <= 1775.0\nmse = 235596110.12\nsamples = 7\nvalue = 210516.53", fillcolor="#f9e1d0"] ;
833 -> 845 ;
846 [label="LotFrontage <= 67.52\nmse = 36704081.63\nsamples = 3\nvalue = 224785.71", fillcolor="#f8decc"] ;
845 -> 846 ;
847 [label="mse = 0.0\nsamples = 1\nvalue = 231500.0", fillcolor="#f8ddca"] ;
846 -> 847 ;
848 [label="OpenPorchSF <= 22.0\nmse = 5062500.0\nsamples = 2\nvalue = 219750.0", fillcolor="#f8dfcd"] ;
846 -> 848 ;
849 [label="mse = 0.0\nsamples = 1\nvalue = 217500.0", fillcolor="#f9e0ce"] ;
848 -> 849 ;
850 [label="mse = 0.0\nsamples = 1\nvalue = 222000.0", fillcolor="#f8dfcc"] ;
848 -> 850 ;
851 [label="2ndFlrSF <= 1003.5\nmse = 75579758.0\nsamples = 4\nvalue = 198031.0", fillcolor="#f9e3d3"] ;
845 -> 851 ;
852 [label="BsmtFullBath <= 0.5\nmse = 14461730.24\nsamples = 3\nvalue = 204349.6", fillcolor="#f9e2d1"] ;
851 -> 852 ;
853 [label="mse = 0.0\nsamples = 1\nvalue = 211000.0", fillcolor="#f9e1cf"] ;
852 -> 853 ;
854 [label="ExterQual_c <= 2.5\nmse = 4255969.0\nsamples = 2\nvalue = 202687.0", fillcolor="#f9e2d2"] ;
852 -> 854 ;
855 [label="mse = 0.0\nsamples = 1\nvalue = 200624.0", fillcolor="#f9e3d2"] ;
854 -> 855 ;
856 [label="mse = 0.0\nsamples = 1\nvalue = 204750.0", fillcolor="#f9e2d1"] ;
854 -> 856 ;
857 [label="mse = 0.0\nsamples = 1\nvalue = 187500.0", fillcolor="#fae5d6"] ;
851 -> 857 ;
858 [label="YearBuilt <= 1956.0\nmse = 875645684.0\nsamples = 32\nvalue = 178454.0", fillcolor="#fae7d9"] ;
832 -> 858 ;
859 [label="GarageArea <= 439.5\nmse = 276548214.29\nsamples = 9\nvalue = 147250.0", fillcolor="#fbece1"] ;
858 -> 859 ;
860 [label="TotalBsmtSF <= 708.5\nmse = 107846938.78\nsamples = 5\nvalue = 161714.29", fillcolor="#fbe9dd"] ;
859 -> 860 ;
861 [label="mse = 0.0\nsamples = 1\nvalue = 139000.0", fillcolor="#fbede3"] ;
860 -> 861 ;
862 [label="Foundation_c <= 0.5\nmse = 25500000.0\nsamples = 4\nvalue = 165500.0", fillcolor="#fae9dc"] ;
860 -> 862 ;
863 [label="mse = 0.0\nsamples = 1\nvalue = 175000.0", fillcolor="#fae7d9"] ;
862 -> 863 ;
864 [label="1stFlrSF <= 1313.5\nmse = 8940000.0\nsamples = 3\nvalue = 163600.0", fillcolor="#fae9dd"] ;
862 -> 864 ;
865 [label="mse = 0.0\nsamples = 1\nvalue = 160000.0", fillcolor="#fbeade"] ;
864 -> 865 ;
866 [label="BsmtUnfSF <= 146.0\nmse = 500000.0\nsamples = 2\nvalue = 166000.0", fillcolor="#fae9dc"] ;
864 -> 866 ;
867 [label="mse = 0.0\nsamples = 1\nvalue = 167000.0", fillcolor="#fae9dc"] ;
866 -> 867 ;
868 [label="mse = 0.0\nsamples = 1\nvalue = 165500.0", fillcolor="#fae9dc"] ;
866 -> 868 ;
869 [label="LowQualFinSF <= 60.0\nmse = 26818367.35\nsamples = 4\nvalue = 132785.71", fillcolor="#fcefe5"] ;
859 -> 869 ;
870 [label="Electrical_c <= 2.0\nmse = 2722400.0\nsamples = 3\nvalue = 135940.0", fillcolor="#fbeee4"] ;
869 -> 870 ;
871 [label="mse = 0.0\nsamples = 1\nvalue = 137900.0", fillcolor="#fbeee4"] ;
870 -> 871 ;
872 [label="BsmtFinSF1 <= 834.0\nmse = 268888.89\nsamples = 2\nvalue = 134633.33", fillcolor="#fceee5"] ;
870 -> 872 ;
873 [label="mse = 0.0\nsamples = 1\nvalue = 135000.0", fillcolor="#fceee5"] ;
872 -> 873 ;
874 [label="mse = 0.0\nsamples = 1\nvalue = 133900.0", fillcolor="#fceee5"] ;
872 -> 874 ;
875 [label="mse = 0.0\nsamples = 1\nvalue = 124900.0", fillcolor="#fcf0e7"] ;
869 -> 875 ;
876 [label="Condition1_c <= 1.5\nmse = 582715432.1\nsamples = 23\nvalue = 190588.89", fillcolor="#fae4d5"] ;
858 -> 876 ;
877 [label="HalfBath <= 1.0\nmse = 421250000.0\nsamples = 3\nvalue = 161500.0", fillcolor="#fbe9dd"] ;
876 -> 877 ;
878 [label="BsmtFinSF2 <= 310.0\nmse = 22687500.0\nsamples = 2\nvalue = 147250.0", fillcolor="#fbece1"] ;
877 -> 878 ;
879 [label="mse = 0.0\nsamples = 1\nvalue = 150000.0", fillcolor="#fbece0"] ;
878 -> 879 ;
880 [label="mse = 0.0\nsamples = 1\nvalue = 139000.0", fillcolor="#fbede3"] ;
878 -> 880 ;
881 [label="mse = 0.0\nsamples = 1\nvalue = 190000.0", fillcolor="#fae4d5"] ;
877 -> 881 ;
882 [label="LandContour_c <= 2.5\nmse = 411929288.89\nsamples = 20\nvalue = 196406.67", fillcolor="#f9e3d4"] ;
876 -> 882 ;
883 [label="BsmtHalfBath <= 0.5\nmse = 272250000.0\nsamples = 2\nvalue = 151500.0", fillcolor="#fbebe0"] ;
882 -> 883 ;
884 [label="mse = 0.0\nsamples = 1\nvalue = 168000.0", fillcolor="#fae8db"] ;
883 -> 884 ;
885 [label="mse = 0.0\nsamples = 1\nvalue = 135000.0", fillcolor="#fceee5"] ;
883 -> 885 ;
886 [label="BsmtFinType1_c <= 1.5\nmse = 267574081.63\nsamples = 18\nvalue = 199614.29", fillcolor="#f9e3d3"] ;
882 -> 886 ;
887 [label="GrLivArea <= 2363.0\nmse = 111244622.22\nsamples = 9\nvalue = 208606.67", fillcolor="#f9e1d0"] ;
886 -> 887 ;
888 [label="TotalBsmtSF <= 1554.5\nmse = 43766581.63\nsamples = 8\nvalue = 206364.29", fillcolor="#f9e2d1"] ;
887 -> 888 ;
889 [label="WoodDeckSF <= 245.0\nmse = 11679506.17\nsamples = 5\nvalue = 210422.22", fillcolor="#f9e1d0"] ;
888 -> 889 ;
890 [label="mse = 0.0\nsamples = 2\nvalue = 215000.0", fillcolor="#f9e0ce"] ;
889 -> 890 ;
891 [label="Fence_c <= 3.0\nmse = 1802222.22\nsamples = 3\nvalue = 208133.33", fillcolor="#f9e1d0"] ;
889 -> 891 ;
892 [label="mse = 0.0\nsamples = 1\nvalue = 210000.0", fillcolor="#f9e1d0"] ;
891 -> 892 ;
893 [label="LotArea <= 13698.0\nmse = 90000.0\nsamples = 2\nvalue = 207200.0", fillcolor="#f9e1d1"] ;
891 -> 893 ;
894 [label="mse = 0.0\nsamples = 1\nvalue = 206900.0", fillcolor="#f9e1d1"] ;
893 -> 894 ;
895 [label="mse = 0.0\nsamples = 1\nvalue = 207500.0", fillcolor="#f9e1d0"] ;
893 -> 895 ;
896 [label="OverallCond <= 5.5\nmse = 18530400.0\nsamples = 3\nvalue = 199060.0", fillcolor="#f9e3d3"] ;
888 -> 896 ;
897 [label="HalfBath <= 0.5\nmse = 902500.0\nsamples = 2\nvalue = 196950.0", fillcolor="#f9e3d3"] ;
896 -> 897 ;
898 [label="mse = 0.0\nsamples = 1\nvalue = 196000.0", fillcolor="#f9e3d4"] ;
897 -> 898 ;
899 [label="mse = 0.0\nsamples = 1\nvalue = 197900.0", fillcolor="#f9e3d3"] ;
897 -> 899 ;
900 [label="mse = 0.0\nsamples = 1\nvalue = 207500.0", fillcolor="#f9e1d0"] ;
896 -> 900 ;
901 [label="mse = 0.0\nsamples = 1\nvalue = 240000.0", fillcolor="#f8dcc7"] ;
887 -> 901 ;
902 [label="YrSold <= 2006.5\nmse = 246993136.09\nsamples = 9\nvalue = 189238.46", fillcolor="#fae5d6"] ;
886 -> 902 ;
903 [label="BedroomAbvGr <= 3.5\nmse = 120101875.0\nsamples = 3\nvalue = 169225.0", fillcolor="#fae8db"] ;
902 -> 903 ;
904 [label="Exterior1st_c <= 10.5\nmse = 10888888.89\nsamples = 2\nvalue = 175333.33", fillcolor="#fae7d9"] ;
903 -> 904 ;
905 [label="mse = 0.0\nsamples = 1\nvalue = 180000.0", fillcolor="#fae6d8"] ;
904 -> 905 ;
906 [label="mse = 0.0\nsamples = 1\nvalue = 173000.0", fillcolor="#fae7da"] ;
904 -> 906 ;
907 [label="mse = 0.0\nsamples = 1\nvalue = 150900.0", fillcolor="#fbebe0"] ;
903 -> 907 ;
908 [label="2ndFlrSF <= 757.0\nmse = 46253333.33\nsamples = 6\nvalue = 198133.33", fillcolor="#f9e3d3"] ;
902 -> 908 ;
909 [label="LotArea <= 22087.5\nmse = 7345000.0\nsamples = 4\nvalue = 191300.0", fillcolor="#f9e4d5"] ;
908 -> 909 ;
910 [label="LotFrontage <= 60.5\nmse = 388888.89\nsamples = 3\nvalue = 192833.33", fillcolor="#f9e4d5"] ;
909 -> 910 ;
911 [label="mse = 0.0\nsamples = 1\nvalue = 192000.0", fillcolor="#f9e4d5"] ;
910 -> 911 ;
912 [label="2ndFlrSF <= 364.5\nmse = 62500.0\nsamples = 2\nvalue = 193250.0", fillcolor="#f9e4d4"] ;
910 -> 912 ;
913 [label="mse = 0.0\nsamples = 1\nvalue = 193500.0", fillcolor="#f9e4d4"] ;
912 -> 913 ;
914 [label="mse = 0.0\nsamples = 1\nvalue = 193000.0", fillcolor="#f9e4d4"] ;
912 -> 914 ;
915 [label="mse = 0.0\nsamples = 1\nvalue = 186700.0", fillcolor="#fae5d6"] ;
909 -> 915 ;
916 [label="WoodDeckSF <= 258.0\nmse = 10140000.0\nsamples = 2\nvalue = 203600.0", fillcolor="#f9e2d2"] ;
908 -> 916 ;
917 [label="mse = 0.0\nsamples = 1\nvalue = 207500.0", fillcolor="#f9e1d0"] ;
916 -> 917 ;
918 [label="mse = 0.0\nsamples = 1\nvalue = 201000.0", fillcolor="#f9e3d2"] ;
916 -> 918 ;
919 [label="GrLivArea <= 2092.0\nmse = 1856402149.71\nsamples = 144\nvalue = 205850.95", fillcolor="#f9e2d1"] ;
1 -> 919 ;
920 [label="GarageType_c <= 4.0\nmse = 1219979468.05\nsamples = 125\nvalue = 195789.75", fillcolor="#f9e3d4"] ;
919 -> 920 ;
921 [label="GrLivArea <= 1492.0\nmse = 913881931.65\nsamples = 103\nvalue = 204302.28", fillcolor="#f9e2d1"] ;
920 -> 921 ;
922 [label="BsmtFinType2_c <= 3.5\nmse = 470369787.86\nsamples = 37\nvalue = 187443.65", fillcolor="#fae5d6"] ;
921 -> 922 ;
923 [label="mse = 0.0\nsamples = 1\nvalue = 241500.0", fillcolor="#f8dbc7"] ;
922 -> 923 ;
924 [label="GarageYrBlt <= 2007.5\nmse = 280338371.54\nsamples = 36\nvalue = 183582.48", fillcolor="#fae6d7"] ;
922 -> 924 ;
925 [label="YearRemodAdd <= 1971.0\nmse = 164708528.6\nsamples = 33\nvalue = 181197.34", fillcolor="#fae6d8"] ;
924 -> 925 ;
926 [label="mse = 0.0\nsamples = 1\nvalue = 140000.0", fillcolor="#fbede3"] ;
925 -> 926 ;
927 [label="GarageArea <= 504.0\nmse = 101999903.44\nsamples = 32\nvalue = 182812.92", fillcolor="#fae6d7"] ;
925 -> 927 ;
928 [label="GrLivArea <= 1329.5\nmse = 40968064.56\nsamples = 18\nvalue = 177522.67", fillcolor="#fae7d9"] ;
927 -> 928 ;
929 [label="BsmtUnfSF <= 1234.5\nmse = 23938364.0\nsamples = 6\nvalue = 171469.0", fillcolor="#fae8da"] ;
928 -> 929 ;
930 [label="GrLivArea <= 1232.5\nmse = 14539955.56\nsamples = 3\nvalue = 168286.67", fillcolor="#fae8db"] ;
929 -> 930 ;
931 [label="mse = 0.0\nsamples = 1\nvalue = 173000.0", fillcolor="#fae7da"] ;
930 -> 931 ;
932 [label="GrLivArea <= 1284.0\nmse = 5148300.0\nsamples = 2\nvalue = 165930.0", fillcolor="#fae9dc"] ;
930 -> 932 ;
933 [label="mse = 0.0\nsamples = 1\nvalue = 167240.0", fillcolor="#fae8dc"] ;
932 -> 933 ;
934 [label="mse = 0.0\nsamples = 1\nvalue = 162000.0", fillcolor="#fbe9dd"] ;
932 -> 934 ;
